%YAML:1.0
---
opencv_ml_svm:
   format: 3
   svmType: C_SVC
   kernel:
      type: RBF
      gamma: 5.383
   C: 2.6699999999999999
   term_criteria: { epsilon:1.1920928955078125e-07, iterations:1000 }
   var_count: 64
   class_count: 10
   class_labels: !!opencv-matrix
      rows: 10
      cols: 1
      dt: i
      data: [ 0, 1, 2, 3, 4, 5, 6, 7, 8, 9 ]
   sv_total: 1943
   support_vectors:
      - [ 0.240329564, 0.248238161, 0., 0.0997674167, 0., 0.0704411864,
          0.0479686372, 0.0813830048, 0.220854819, 0.215191096, 0., 0.,
          0., 0., 0.0302865338, 0.0131588513, 0.202428535, 0.042366825,
          0.0808266178, 0.115122981, 0.168417513, 0.14451234,
          0.0901977122, 0., 0.10979867, 0.00980047509, 0., 0.139058396,
          0.221939474, 0.146521226, 0.15029341, 0.108878464, 0.110307619,
          0.132394969, 0.181720972, 0.170446962, 0.151291162,
          0.112303935, 0.159380987, 0.116131075, 0.119500861,
          0.014007166, 0.172203496, 0.0902055278, 0.0821453035,
          0.101576835, 0.0560690239, 0.0834785998, 0.108312778,
          0.144684836, 0.111007988, 0.139309958, 0., 0.119198218,
          0.0751166865, 0., 0.163088545, 0.184465021, 0.193364859,
          0.262651086, 0.0338929072, 0., 0., 0.0774802566 ]
      - [ 0.147436202, 0.298104227, 0.209428728, 0., 0.0982641727,
          0.0477087982, 0.136550233, 0.0716962814, 0.123453602,
          0.181681886, 0.0319205076, 0., 0., 0., 0., 0., 0.163766712,
          0.122889712, 0.0733349845, 0., 0.0574031435, 0., 0.,
          0.0726689622, 0., 0.0676717833, 0., 0.209693089, 0.195404261,
          0.128398389, 0.138396606, 0.159688145, 0., 0.1545977,
          0.209861562, 0.266692489, 0.164556459, 0.091365099,
          0.0721694157, 0.128186494, 0.0799913406, 0.203979015,
          0.202214733, 0., 0.0733138323, 0., 0., 0., 0.0503735021,
          0.122907907, 0.185810983, 0.0572309606, 0., 0.04957233,
          0.0384917744, 0., 0.0886229798, 0.318787068, 0.262896508,
          0.100000083, 0.0818751827, 0.067577675, 0., 0.0845392048 ]
      - [ 0.135137707, 0.163875729, 0.213861421, 0.183628649,
          0.100634828, 0., 0.106903076, 0., 0.123716213, 0.11870914,
          0.147316381, 0.128024146, 0., 0., 0., 0.183290124, 0.269616663,
          0.1245877, 0.0982870683, 0., 0.085790202, 0., 0., 0.,
          0.0532192998, 0.0753774047, 0.0954504535, 0., 0.135930717,
          0.218664542, 0.184364125, 0.050903827, 0.0627485365,
          0.129853904, 0.176735416, 0.163989753, 0.198197812,
          0.179211795, 0.112238646, 0.0937298015, 0.159484133,
          0.135011628, 0.153890908, 0.0818969458, 0.183663741, 0., 0.,
          0., 0.0973815918, 0.0922105908, 0.0728837103, 0., 0.0862463638,
          0., 0.08785256, 0.0816852301, 0.34004128, 0.218648225,
          0.0524069741, 0.110250182, 0., 0.0903864577, 0.0921050534,
          0.0862604454 ]
      - [ 0.0699415728, 0.138902962, 0.18916674, 0.259447157,
          0.0541350655, 0.15235357, 0., 0., 0., 0., 0., 0.170437828,
          0.0671693608, 0., 0.149654582, 0.0304016247, 0.0928112343,
          0.0630554706, 0.0786704272, 0.0860631168, 0.184055358,
          0.126464799, 0., 0., 0., 0., 0., 0.0586721525, 0.256582677,
          0.294043422, 0.0963219777, 0.0764362961, 0., 0.00457262574, 0.,
          0.263103008, 0.168637618, 0.120552726, 0.127607942, 0.,
          0.102400467, 0.0933786556, 0.139270425, 0.299915463, 0., 0.,
          0., 0., 0., 0.105052188, 0.129655272, 0.114529863, 0.154047355,
          0.201315194, 0.14151381, 0.147504583, 0.146958113,
          0.0925736055, 0.137629136, 0.214382246, 0.153337866,
          0.113182575, 0.0856261924, 0. ]
      - [ 0.131165236, 0.14172174, 0.155035138, 0.261022508, 0.132249832,
          0., 0., 0., 0., 0.0807248428, 0.121850722, 0.0716041625,
          0.124021068, 0.0463342667, 0.100159585, 0.119362459,
          0.206613913, 0.103657305, 0.100558572, 0.0976952016,
          0.0587106831, 0.0876846164, 0.0670375824, 0., 0.106425561, 0.,
          0.112921916, 0.0953325704, 0.232187897, 0.171755239,
          0.13213408, 0.17879574, 0.0813234076, 0.0905113444,
          0.0256712381, 0.136096358, 0.16519323, 0.185681835,
          0.172224104, 0.294747442, 0.0475183427, 0., 0., 0., 0.,
          0.087826781, 0.152675584, 0.153513342, 0.0778214112,
          0.0869750902, 0.114708483, 0., 0., 0.0371092409, 0.179733455,
          0.204839095, 0.0951686576, 0.129241034, 0.243841439,
          0.236545116, 0., 0.109840997, 0.0723412111, 0. ]
      - [ 0.159838825, 0.0986446142, 0.196218252, 0.25485909, 0., 0., 0.,
          0., 0., 0., 0., 0., 0.213505074, 0.191856444, 0.116293266,
          0.112537295, 0.205808252, 0.100429207, 0.193419829,
          0.115181379, 0., 0., 0., 0., 0., 0., 0., 0., 0., 0.25041312,
          0.178306624, 0.212772697, 0., 0.160351217, 0.17897287,
          0.114789613, 0.0561866798, 0.106709525, 0.143198103,
          0.155301884, 0.254577041, 0.23537679, 0., 0.030404415,
          0.0579490364, 0., 0., 0.055387523, 0.0494478233, 0.0629957616,
          0.0623706914, 0., 0., 0.0625564083, 0.203838915, 0.159428611,
          0.25288406, 0.261941135, 0.0912563875, 0.144805744,
          0.0787935629, 0., 0.053727828, 0. ]
      - [ 0.302874416, 0.181323126, 0.115818135, 0.0785595328,
          0.0882681534, 0., 0.0714501292, 0.0436771587, 0.204932481,
          0.164374918, 0., 0., 0., 0., 0., 0.0299212206, 0.201306328,
          0.0509109013, 0., 0.0854595378, 0.092833817, 0.0750726908,
          0.135987327, 0., 0.198279902, 0., 0., 0.106500812, 0.184746087,
          0.15509513, 0.174246773, 0.156637713, 0.225855395, 0.114196777,
          0.0952391624, 0.0641098171, 0.120709248, 0.11911846,
          0.14039588, 0.178690925, 0.273783863, 0., 0., 0., 0.0365169533,
          0., 0., 0.107143387, 0.19334498, 0.0902108848, 0.135120317,
          0.0558465794, 0., 0., 0., 0., 0.341059506, 0.153674155,
          0.109843016, 0.033240702, 0.140359461, 0.116934337,
          0.148546651, 0.0577232577 ]
      - [ 0.0443401374, 0.202353999, 0.300092876, 0.182830587, 0., 0.,
          0., 0., 0., 0., 0.0575501323, 0.171951979, 0.139927313,
          0.0985852852, 0.0311376303, 0.0896965563, 0.202012062,
          0.250398934, 0.0319034867, 0., 0., 0., 0., 0., 0.0709243044,
          0., 0.145546153, 0.171923429, 0.116121396, 0.120967291,
          0.181769416, 0.134010553, 0., 0.111542344, 0.101172835,
          0.135581002, 0.152598545, 0.0915423557, 0.237509906,
          0.14377141, 0.240822762, 0.10727451, 0., 0.0445367061, 0., 0.,
          0.103403442, 0.118970305, 0.19031252, 0.0773546472,
          0.0241240114, 0.0313039459, 0., 0., 0.120037802, 0.111429296,
          0.28830409, 0.301812619, 0., 0.101515062, 0., 0.113055259,
          0.0947048888, 0. ]
      - [ 0.292497456, 0.0807463676, 0.123106256, 0.0717777163, 0., 0.,
          0., 0., 0., 0., 0., 0., 0., 0., 0.0244972371, 0.25356546,
          0.299320459, 0.020559812, 0., 0., 0., 0., 0., 0., 0., 0., 0.,
          0., 0., 0.101468079, 0.123462901, 0.320446849, 0.0915055647,
          0., 0., 0.102085963, 0.144423008, 0.130593121, 0.169844523,
          0.276854724, 0.309282035, 0.0377680324, 0., 0., 0., 0., 0.,
          0.184222624, 0., 0.115762807, 0., 0., 0., 0., 0.0524232611,
          0.36387983, 0.279886425, 0.163588956, 0.0635180026,
          0.0980521962, 0.160507053, 0., 0.114847682, 0.0707260445 ]
      - [ 0.115271896, 0.156285182, 0.228599265, 0.201354235, 0.13145864,
          0.117725991, 0.0206530448, 0.0427178852, 0.105523758, 0.,
          0.158816949, 0.188001364, 0., 0.056341093, 0.114516608, 0.,
          0.208363593, 0.0207094979, 0.0538886674, 0., 0.145679682, 0.,
          0., 0.0637576655, 0.0431240462, 0.0196793266, 0., 0.0360568911,
          0.182339936, 0.235950649, 0.158384591, 0.08657372, 0.156146944,
          0.134871304, 0.0665812492, 0.172744945, 0.236171514,
          0.126041874, 0.107188538, 0.0652222261, 0.13197802,
          0.178321972, 0.169899806, 0.151242405, 0.0590033643,
          0.0883388668, 0.0811516866, 0.114535816, 0., 0.0782524794,
          0.129096776, 0.116909437, 0.0613612644, 0.110965312,
          0.176198289, 0.120676138, 0.174545988, 0.214230329, 0.16037561,
          0.1600665, 0.121613152, 0.0883344263, 0., 0.0798740759 ]
      - [ 0.116104491, 0.157852694, 0.280288339, 0.170625672, 0., 0., 0.,
          0., 0.118883125, 0.113836646, 0.169725031, 0.101215258, 0.,
          0.0191020593, 0.00732490933, 0.16267547, 0.0626778081,
          0.116782665, 0.109500684, 0.0751861557, 0., 0.145920768,
          0.113244928, 0., 0., 0., 0., 0.050908763, 0.0733372942,
          0.291629493, 0.219023272, 0., 0., 0.00517949322, 0.,
          0.292127699, 0.172050476, 0.0685267597, 0.12210609, 0.,
          0.116731308, 0.112851135, 0.114700966, 0.329165846, 0., 0., 0.,
          0., 0.0789158642, 0.145473108, 0., 0., 0., 0.236580744,
          0.15687035, 0.152803794, 0.156199098, 0.165091768, 0.114162102,
          0.175224647, 0.112065926, 0.100301161, 0., 0.137179926 ]
      - [ 0.172990397, 0.0834044367, 0.130995736, 0.215829119,
          0.141695037, 0.0884686559, 0.064633362, 0.0974355862, 0.,
          0.106271856, 0.0983561948, 0.11955449, 0.0470699333, 0.,
          0.0370100103, 0.20124948, 0.135578915, 0.0885600001,
          0.098886162, 0.144587457, 0.184679493, 0.0956330523,
          0.0143754724, 0., 0., 0.0239933226, 0.234568819, 0.123182498,
          0.207898021, 0.18537952, 0.117783517, 0.0990145355, 0., 0.,
          0.100087985, 0.23092182, 0.173591122, 0.142279804, 0.133691356,
          0.14122647, 0.113528363, 0.0303878821, 0.139367521,
          0.211083874, 0.0638961717, 0.118554957, 0., 0.0755661502,
          0.187539354, 0.192753822, 0.139561594, 0.0776913017, 0., 0.,
          0., 0.0234083291, 0.231412143, 0.192004129, 0.216776669,
          0.13067314, 0., 0., 0., 0. ]
      - [ 0.150698304, 0.162883297, 0.224116787, 0.135432512, 0.,
          0.141523749, 0.115438938, 0.0661456287, 0.0532694384,
          0.135349438, 0.147718057, 0.0317741707, 0., 0.221440062,
          0.160837755, 0.101820506, 0.205765128, 0.210188478,
          0.0681856349, 0., 0.107255429, 0.0485267602, 0., 0.0504139662,
          0., 0., 0., 0.144257516, 0.0920722187, 0.143037274,
          0.149077639, 0.190629348, 0.0600865595, 0.144996196,
          0.161099434, 0.172017917, 0.160634786, 0.173059791,
          0.160440832, 0.0428473167, 0.068848893, 0.254421681,
          0.14346914, 0.131942689, 0., 0., 0., 0., 0.0831743553,
          0.0757088512, 0., 0., 0., 0., 0.0529040284, 0.236692771,
          0.221240371, 0.231087714, 0.170088947, 0., 0., 0.107304417, 0.,
          0.118675947 ]
      - [ 0., 0.157389238, 0.244270831, 0.226017401, 0., 0., 0., 0., 0.,
          0.016007157, 0.150387183, 0.202778831, 0.145171478,
          0.073492758, 0.0499656461, 0.0975368395, 0.176504895,
          0.118311241, 0.0828869194, 0.113750137, 0.183413446,
          0.157468334, 0., 0., 0., 0., 0., 0., 0.236863732, 0.209763959,
          0.144275963, 0.0556870401, 0.126621425, 0.123718582,
          0.0965922251, 0.0667696521, 0.191201702, 0.126213044,
          0.168203071, 0.162075683, 0.245373309, 0.0518200472, 0., 0.,
          0.0669108108, 0.0993060172, 0.084330231, 0.127731636,
          0.0724099278, 0.0969979614, 0., 0.147947297, 0., 0.,
          0.0248588882, 0.227320641, 0.19330211, 0.147029504,
          0.180485994, 0.169418886, 0.0999020711, 0.119121142,
          0.108017892, 0.129659146 ]
      - [ 0., 0.213430926, 0.314843595, 0., 0., 0., 0., 0.0248419326,
          0.0467935503, 0.175296307, 0., 0., 0., 0., 0., 0., 0.184537426,
          0.16793181, 0.0639374554, 0., 0., 0., 0., 0., 0., 0.188187286,
          0.266823769, 0., 0.112801872, 0.0974578634, 0.124316655,
          0.119769864, 0.117310561, 0.113575041, 0.150362253,
          0.092076607, 0.156274229, 0.111834548, 0.137507513,
          0.208303958, 0.179883599, 0.160196289, 0.0902824476,
          0.0947064459, 0.0870054588, 0., 0.0969052538, 0.132788375,
          0.319281399, 0.163082644, 0., 0., 0., 0.0371876955,
          0.0356652066, 0.0236777309, 0.327508837, 0.229041651,
          0.0972354412, 0.0936594456, 0.0546000302, 0.0929312408, 0.,
          0.0937140211 ]
      - [ 0.100065738, 0.11513675, 0.173784509, 0.294499457, 0., 0., 0.,
          0., 0., 0.0680807084, 0.14677307, 0.187374115, 0.144120112,
          0.112214409, 0.100210518, 0., 0.0944339111, 0., 0.0761107206,
          0.148648709, 0.267303884, 0., 0., 0., 0., 0., 0., 0.218006074,
          0.244629651, 0.135252178, 0.0832655132, 0.112544537,
          0.0867994577, 0., 0.154324308, 0.148647875, 0.1653409,
          0.193304688, 0.157118976, 0.170457035, 0.117445275,
          0.0316147283, 0.0150186224, 0., 0.141773835, 0.124030679, 0.,
          0.0816790313, 0.089234218, 0.0823333934, 0.136916474,
          0.143008202, 0., 0., 0.0999919847, 0.219668046, 0.0750475526,
          0.142643124, 0.132186353, 0.248806149, 0.184427589,
          0.0644274205, 0.0806753337, 0.101485908 ]
      - [ 0.208735451, 0.123227201, 0.133448288, 0.235991418,
          0.134595066, 0., 0., 0.0856757686, 0., 0.145318165,
          0.102688029, 0., 0., 0., 0.170555472, 0.135816023, 0.230678484,
          0.0952238888, 0., 0., 0.112475321, 0., 0.0832257196, 0.,
          0.117623918, 0., 0.123063125, 0.0716475919, 0.17656666,
          0.186166346, 0.144134924, 0.210105121, 0.110157736, 0.,
          0.137512267, 0., 0.264271617, 0.158852622, 0.0772855058,
          0.13270314, 0., 0.212817624, 0.197908983, 0.0938871279, 0., 0.,
          0.0909229591, 0., 0.0874951929, 0., 0.138895869, 0.0241121501,
          0., 0.099020049, 0.221601516, 0.180910647, 0.134574696,
          0.173113883, 0.155436292, 0.238394201, 0.0947868675,
          0.0426089875, 0., 0.0780011564 ]
      - [ 0., 0.115872599, 0.133645922, 0.0759380907, 0.224143118,
          0.0817750096, 0., 0., 0., 0., 0., 0., 0.235613883, 0.146036625,
          0.100552537, 0.155827776, 0.285627425, 0.226779446, 0., 0., 0.,
          0., 0., 0., 0.0264709666, 0., 0., 0., 0.10947673, 0.,
          0.0947457552, 0.257527262, 0.156458184, 0.166288942, 0., 0.,
          0.23304151, 0.157044187, 0.177451789, 0.148255572, 0.199254796,
          0.134374455, 0., 0., 0.162529573, 0., 0.126741007, 0.,
          0.104201376, 0.136895075, 0., 0., 0.0554013997, 0.0435641557,
          0.0552697964, 0.225752726, 0.237721026, 0.331069022,
          0.185143337, 0., 0., 0., 0., 0. ]
      - [ 0.184318349, 0.250836313, 0.192547962, 0.0547683202,
          0.0969617814, 0.0787869766, 0., 0.0722812936, 0.0766610652, 0.,
          0.125230908, 0.0573197007, 0., 0., 0., 0., 0.135605976, 0.,
          0.0487190075, 0., 0.0789214745, 0.0811220184, 0.125029415, 0.,
          0., 0.12867026, 0.115064822, 0., 0.139708653, 0.176540405,
          0.214044154, 0.211568668, 0., 0., 0.182565123, 0.188235611,
          0.215190664, 0.172633052, 0.139331594, 0.11397136, 0.153409228,
          0.0955831856, 0.218333229, 0.130720749, 0.0350823849, 0., 0.,
          0., 0., 0.0897384956, 0.13130413, 0.132607847, 0.102007188,
          0.109014712, 0.145866618, 0.173153594, 0.143574908,
          0.160409108, 0.221706852, 0.240458831, 0.120349407, 0.14456518,
          0.0811220184, 0.0972077474 ]
      - [ 0.088241972, 0.119326681, 0.138228595, 0.290210187,
          0.214524552, 0.0179411601, 0.00794524327, 0., 0., 0.0282311961,
          0., 0.0680547506, 0.203434855, 0.159912035, 0.0754418746,
          0.0372635163, 0.0970678627, 0.043580886, 0.10577812,
          0.174098313, 0.227646202, 0., 0., 0., 0., 0., 0., 0.,
          0.365356743, 0.186707467, 0.151184767, 0., 0., 0.0757725611,
          0.0901578143, 0.139309511, 0.111490123, 0.235236749,
          0.133022353, 0.0285035204, 0.121901184, 0.131033316,
          0.171683148, 0., 0.103781655, 0.0692483485, 0.0777612925,
          0.0677363202, 0., 0.0988749787, 0.125811309, 0.149494708, 0.,
          0.121524088, 0.157756731, 0.103677541, 0.120419696,
          0.191334426, 0.159175441, 0.204351455, 0.150966614, 0.,
          0.0794760212, 0. ]
      - [ 0.220612392, 0.166716024, 0.126694739, 0.139440417,
          0.123067319, 0., 0., 0., 0.124979518, 0.189731732, 0.118225351,
          0.0654853135, 0., 0., 0.0408488289, 0.184571579, 0.173851952,
          0.0353264175, 0., 0., 0.041068621, 0.0995447934, 0.151344374,
          0.21150744, 0.0890823901, 0., 0., 0., 0.0827495977,
          0.170678318, 0.205887064, 0.201808289, 0.0885920525, 0., 0.,
          0.174023241, 0.151775464, 0.118213087, 0.174407542,
          0.175363287, 0.170109615, 0.0373308286, 0.150116608,
          0.136004299, 0.0997725278, 0., 0.108304687, 0.168303221,
          0.202363193, 0.1818773, 0.100395665, 0.116559967, 0.0775137469,
          0., 0.0524168611, 0.0797674358, 0.253181189, 0.200341135,
          0.169645458, 0.161304474, 0., 0., 0., 0. ]
      - [ 0.169571891, 0.15924032, 0.197818503, 0.130213425, 0.,
          0.101412319, 0.169180989, 0.126031369, 0., 0.116127566,
          0.147509307, 0.0715841502, 0., 0., 0.133100778, 0.149731129,
          0.150843382, 0.18802233, 0., 0., 0.0975494534, 0.112899072,
          0.0763387978, 0.0852592587, 0., 0.0573608726, 0.095586732,
          0.135752901, 0.177070439, 0.125696108, 0.210012689, 0.16477941,
          0., 0., 0.194346026, 0.224136427, 0.1564686, 0.11921183,
          0.161141872, 0.0875794142, 0.114724845, 0.157190979,
          0.129846871, 0.0347058922, 0.151678145, 0.110623017,
          0.0552042387, 0., 0.0877141878, 0.0923114866, 0., 0.15733844,
          0.0509169698, 0.0412535965, 0.16238299, 0.158452481,
          0.0986927748, 0.193335697, 0.239430562, 0.182652548,
          0.129460171, 0., 0.0768124461, 0. ]
      - [ 0.0892362595, 0.107600905, 0.124474481, 0.274532318,
          0.161478832, 0., 0., 0., 0., 0., 0., 0.204962149, 0.200680643,
          0.119350769, 0.071312055, 0.0812577456, 0.184858352,
          0.244994089, 0.10658969, 0.0400114879, 0.104546949, 0., 0., 0.,
          0.0701133907, 0.0845248699, 0.101957388, 0., 0., 0.199935436,
          0.144382194, 0.175878525, 0.06714762, 0.106228061, 0.05058809,
          0.227284119, 0.146096751, 0.0953918844, 0.133023202,
          0.198378399, 0.203222141, 0.0315908305, 0., 0.107262224,
          0.0767693371, 0.124599896, 0.0258207526, 0.0943571702, 0.,
          0.035197448, 0.0895621032, 0.102931857, 0., 0.167351529,
          0.175072417, 0., 0.233144373, 0.242307037, 0.151824623,
          0.222648531, 0., 0., 0.101227447, 0.0791475773 ]
      - [ 0.144585386, 0.164516464, 0.194543853, 0.104539506, 0., 0., 0.,
          0., 0.0805967823, 0., 0., 0., 0., 0.0289219934, 0.127941161,
          0.247073263, 0.148598462, 0.16697371, 0.137578249, 0.,
          0.0794208497, 0.0948552862, 0.0873191506, 0., 0.125221476,
          0.101066507, 0.153356627, 0., 0.0965328813, 0.199526116,
          0.201929748, 0.13559863, 0., 0.0566528253, 0., 0.159542516,
          0.235207677, 0.20290494, 0.181564629, 0.140514642, 0.132768348,
          0.218768045, 0.101103298, 0.113177314, 0., 0., 0., 0.,
          0.167159498, 0., 0.154762119, 0., 0., 0., 0.0166335236,
          0.250795782, 0.224091768, 0.16886735, 0.161630645, 0.159434706,
          0.175874934, 0.0969171748, 0.0888883695, 0.0950061977 ]
      - [ 0.138339192, 0.109001882, 0.129036486, 0.106756061,
          0.242961094, 0.161881194, 0.0502152406, 0., 0., 0., 0.,
          0.0997405946, 0.297592402, 0.0501440316, 0.0931574181,
          0.0993228108, 0.217762142, 0.176602513, 0.190003186, 0., 0.,
          0., 0., 0.0536559746, 0.100519918, 0.103586547, 0.0895934924,
          0.0163928326, 0.0895728618, 0.0917030647, 0.185864702,
          0.168007419, 0.0794446319, 0.0107495822, 0.189989641,
          0.204815999, 0.196337059, 0.129299909, 0.128485039,
          0.117576972, 0.162350804, 0.140447512, 0., 0., 0.102523446,
          0.0759233832, 0.0769181103, 0., 0., 0., 0.157499135, 0.,
          0.115231805, 0.0999782905, 0.0718904585, 0.097553052,
          0.157317191, 0.281946391, 0.175622061, 0.263549179,
          0.0450480506, 0., 0., 0. ]
      - [ 0.0747496262, 0.106001325, 0.187209085, 0.295256555, 0., 0.,
          0., 0., 0., 0., 0., 0.150966123, 0.140807003, 0.0616319254,
          0.0878255367, 0.144423753, 0., 0.131138131, 0.0735699013,
          0.100244708, 0.228559345, 0., 0., 0., 0., 0., 0., 0.0797794908,
          0.327165544, 0.148114309, 0.127343595, 0.114611931, 0., 0.,
          0.144323468, 0.152671129, 0.192676216, 0.10915456, 0.107312985,
          0.210862115, 0.126223683, 0.198020935, 0.0469060652,
          0.0255916379, 0.141479567, 0., 0.0683429316, 0.0590763837,
          0.0993014947, 0., 0.098288402, 0.145181969, 0.139983654,
          0.166366458, 0.149783075, 0.147803962, 0.120636657,
          0.124406867, 0.150403276, 0.225267246, 0.184045762,
          0.177817598, 0., 0. ]
      - [ 0.241053373, 0.308246702, 0.0936364532, 0., 0., 0., 0., 0., 0.,
          0., 0., 0., 0., 0.207109198, 0.123431087, 0.14776516,
          0.145942077, 0.121671222, 0.193955272, 0.18443045, 0., 0., 0.,
          0., 0., 0., 0., 0., 0.262656212, 0.129113019, 0.0677355081,
          0.223803058, 0.0563796088, 0., 0., 0., 0.152663618,
          0.0755476952, 0.149572581, 0.338943839, 0.248966455, 0.,
          0.0557046048, 0., 0., 0., 0., 0., 0., 0.0919469967,
          0.0869385824, 0., 0., 0.116119042, 0.190497443, 0.265944064,
          0.108685784, 0.121884033, 0.182328388, 0.242973119, 0., 0., 0.,
          0.141705945 ]
      - [ 0.24300395, 0.123796128, 0.145301357, 0.196259201,
          0.0423905179, 0.0765980408, 0., 0.0853284895, 0.117211401,
          0.135788053, 0.140850618, 0., 0., 0., 0.0341149494,
          0.0196524914, 0.100528948, 0.0593409762, 0.109930009,
          0.212767243, 0.124880619, 0.0746461749, 0., 0., 0., 0., 0.,
          0.207172021, 0.226992205, 0.163484111, 0.152169064,
          0.130301043, 0., 0., 0.0230605174, 0.275428742, 0.174385697,
          0.0947968364, 0.0438951179, 0.117404118, 0.0106178494,
          0.0970047414, 0.0565958917, 0.296976119, 0., 0., 0., 0., 0.,
          0.0856979564, 0.11787276, 0.16721575, 0.16695109, 0.164132699,
          0.152487308, 0.124568217, 0.129583359, 0.1268491, 0.127641857,
          0.288805157, 0.0941383466, 0.116027571, 0.0335859098,
          0.113088168 ]
      - [ 0.149972379, 0.0426018052, 0.214856446, 0.16483143,
          0.109433778, 0., 0.0793361887, 0., 0., 0., 0.219127893,
          0.13963531, 0.0865927041, 0.119409069, 0.098678343, 0.,
          0.141740263, 0.0794226527, 0.134910032, 0.262868941, 0., 0.,
          0., 0., 0.0612662435, 0.0780819431, 0., 0.155597448,
          0.051000338, 0.236884907, 0.164608955, 0.124645531,
          0.109682135, 0.217939287, 0.0886664987, 0.149670973,
          0.106862277, 0.0629104525, 0.114309363, 0.130565092,
          0.269212157, 0.113811538, 0.103568263, 0., 0., 0.,
          0.0298356619, 0.124571331, 0., 0.0755798072, 0.100652605,
          0.0957133472, 0.0840874091, 0.156053573, 0.157566309,
          0.184109807, 0.18685165, 0.198033035, 0.151094824, 0.120707303,
          0.136905059, 0.124487005, 0.164943844, 0. ]
      - [ 0.127143726, 0.153538927, 0.247191235, 0.222198591, 0., 0., 0.,
          0., 0., 0., 0., 0.250601798, 0.135813683, 0.117879398,
          0.126038209, 0.0826584697, 0.0720144585, 0.106993288,
          0.0712593198, 0., 0.257787675, 0.115641661, 0.103795111, 0.,
          0., 0., 0., 0.100511938, 0.233409271, 0.180264995, 0.148836628,
          0.114532113, 0., 0., 0.095250085, 0.0659573004, 0.153054923,
          0.210825473, 0.230782583, 0.116911933, 0.160530508,
          0.0411761031, 0., 0.152307883, 0.10386847, 0.149175704,
          0.0369703136, 0.0773450509, 0.0890244618, 0.124258958,
          0.100062028, 0.183766454, 0., 0., 0.0377113745, 0.137112513,
          0.153025374, 0.194971636, 0.16213648, 0.196693853,
          0.0545171909, 0.0792817175, 0.121675059, 0.100718439 ]
      - [ 0.230381638, 0.182469785, 0.108693011, 0.170441195,
          0.0814630389, 0.137543038, 0.0811751783, 0., 0.22370486,
          0.0740883574, 0., 0., 0., 0., 0.0438893922, 0.0452242605,
          0.190379217, 0.128714114, 0.0798643902, 0.0973471776,
          0.0805290118, 0.10117396, 0., 0., 0.061762955, 0.0422597155,
          0.269168109, 0.193946838, 0.0932911634, 0.0684286058,
          0.0947599337, 0.103484869, 0.0919154882, 0.163568914,
          0.143807545, 0.111117385, 0.212690383, 0.190300122,
          0.159041643, 0.253551513, 0.0206402261, 0., 0., 0., 0., 0., 0.,
          0.190322399, 0.0408671349, 0., 0., 0., 0., 0., 0., 0.205649912,
          0.140687674, 0.127288207, 0.199969441, 0.150844529,
          0.207808778, 0.164745033, 0.114638798, 0.211912856 ]
      - [ 0., 0.117991187, 0.0732768998, 0.350931585, 0., 0., 0., 0., 0.,
          0.0137476288, 0., 0.239090785, 0.245256186, 0.119509339,
          0.0496057048, 0.111657709, 0.312685102, 0.164702103, 0., 0.,
          0., 0., 0., 0., 0.0960162655, 0., 0., 0., 0., 0., 0.,
          0.138437882, 0., 0.150713474, 0., 0., 0.297138244, 0.149675682,
          0.0883051306, 0.148741871, 0.154688373, 0.148280039, 0.,
          0.148396075, 0.112114027, 0.128873706, 0.0690760314,
          0.116129734, 0.0964729786, 0.242266059, 0.0404515527, 0., 0.,
          0., 0., 0.0572495349, 0.288618982, 0.347773433, 0., 0., 0., 0.,
          0., 0.041157335 ]
      - [ 0.215355143, 0.120406836, 0.0421545543, 0.0916556194, 0.,
          0.161558449, 0.114938222, 0.182858795, 0., 0., 0., 0., 0., 0.,
          0.0313244537, 0.0563487262, 0.224970222, 0.0440356284, 0., 0.,
          0., 0.151398808, 0.113176711, 0.0714563653, 0., 0.0497317873,
          0.0422613025, 0.212709367, 0.177708998, 0.138174772,
          0.119004197, 0.0781525224, 0.186748847, 0., 0.0688318834,
          0.0860136896, 0.0830713958, 0.135564119, 0.172028333,
          0.261267781, 0.176844522, 0., 0., 0., 0., 0., 0.0390383378,
          0.295898378, 0.202337831, 0.139076576, 0.100663394,
          0.135940999, 0.0474877767, 0.0339472704, 0.0101044467,
          0.155434623, 0.327242523, 0.132037729, 0.131484494, 0.11718338,
          0.102509767, 0.159124151, 0.177564204, 0.0907909274 ]
      - [ 0.0125489505, 0.148771837, 0.283342332, 0.223717302, 0., 0.,
          0., 0., 0.0681995228, 0., 0.108309209, 0.092556797,
          0.195358053, 0.0619147494, 0.104444727, 0.0815231353,
          0.139856696, 0.0236367341, 0.121610217, 0.185761884,
          0.117978901, 0., 0.0934651867, 0.0905094966, 0.0427401848, 0.,
          0., 0.0971655175, 0.15926522, 0.248870865, 0.152860194,
          0.131800294, 0.0841540545, 0.07335677, 0., 0.183576524,
          0.178840399, 0.135553926, 0.094539009, 0.14664413,
          0.0319005027, 0.147873789, 0.26950416, 0.0749674067,
          0.0936965197, 0., 0.0827514678, 0., 0.0422391146, 0.161218077,
          0.128863662, 0., 0., 0.230629578, 0.162156954, 0.130230665,
          0.15897429, 0.17208156, 0.170784667, 0.136035323, 0.,
          0.143576473, 0.0721856728, 0.101827405 ]
      - [ 0.123067059, 0.154487297, 0.219387352, 0.195879743, 0.,
          0.12350028, 0.0286949221, 0.122242697, 0., 0.0496413186,
          0.157577842, 0., 0., 0., 0.208195746, 0.0503507294,
          0.205920115, 0.0581275634, 0., 0.0562015064, 0., 0., 0.,
          0.151184872, 0., 0.0884666592, 0., 0.091581285, 0.111745968,
          0.133491918, 0.192904964, 0.213293776, 0., 0.136339292,
          0.141134426, 0.163195238, 0.14522846, 0.136834994, 0.139081925,
          0.170297965, 0.117991537, 0.257676512, 0., 0.0964674801, 0.,
          0.0986992046, 0.086316511, 0.0973972678, 0.0822191313,
          0.150824532, 0., 0.108923055, 0., 0.176101282, 0.163902119,
          0.152618289, 0.168619365, 0.221932396, 0.166884392,
          0.190122917, 0., 0.13448517, 0.0909613296, 0.0952951163 ]
      - [ 0.141128033, 0.0435867347, 0.139434889, 0.116498448,
          0.0939905718, 0.230234355, 0.00891954731, 0., 0., 0., 0., 0.,
          0.159217253, 0.120836236, 0.247479945, 0.114586227,
          0.0439795889, 0.13898018, 0.178218901, 0.248169348,
          0.0955411047, 0.0785885155, 0., 0., 0.0718874782, 0.0828296542,
          0.100009531, 0.139549986, 0.137574852, 0.264171451, 0.15782018,
          0.158603951, 0.104997493, 0.0147913946, 0.0675452799,
          0.198685303, 0.170063764, 0.179006949, 0.213263676,
          0.208734676, 0.0708648935, 0., 0., 0., 0.0129910996, 0., 0.,
          0.0866517201, 0.0671938434, 0., 0.102235071, 0.0614012331, 0.,
          0.070980221, 0.0858789906, 0., 0., 0.283635318, 0.266226619,
          0.22403805, 0.0371251591, 0.0817933157, 0., 0. ]
      - [ 0., 0.127810851, 0.13026388, 0.144332811, 0.313571513,
          0.0278319344, 0., 0., 0., 0., 0., 0.305019885, 0.17449525,
          0.105103932, 0.10416878, 0.120906964, 0.157871962, 0.194910318,
          0.191115305, 0., 0., 0., 0., 0., 0.113338359, 0.122832574, 0.,
          0., 0.0458907783, 0., 0., 0., 0.0984456018, 0.0848966241,
          0.0229321551, 0.197731227, 0.274605066, 0.0673921332,
          0.0985865071, 0.127836123, 0.156242102, 0.118945144,
          0.104305588, 0.235518575, 0.0832478702, 0.0891099274,
          0.0651349053, 0.0851330236, 0., 0.25919196, 0.179095283, 0.,
          0., 0., 0., 0., 0.0734919682, 0.362220705, 0.166187897, 0., 0.,
          0., 0., 0. ]
      - [ 0., 0.11832615, 0.168786511, 0.266392946, 0., 0., 0., 0., 0.,
          0.018256098, 0., 0.277578831, 0.0865027159, 0.0871206969,
          0.0604628585, 0.112070464, 0., 0.324363828, 0.0817900896,
          0.0344414487, 0., 0., 0.109658226, 0.0537592955, 0., 0.,
          0.04962961, 0.205569804, 0.111438721, 0.132934347,
          0.0617759973, 0.119975992, 0.132897586, 0.177124113,
          0.0576692857, 0.196285039, 0.138835922, 0.140119061,
          0.0945179909, 0.140235588, 0.213228092, 0.18381457, 0.,
          0.135200441, 0.0899794549, 0.0567287505, 0.0991822407,
          0.0883180052, 0., 0.0817584246, 0.0728578866, 0.239881724, 0.,
          0.155712619, 0.0132443644, 0.08459723, 0.0596364476,
          0.252536297, 0.184004068, 0.263937652, 0., 0., 0., 0. ]
      - [ 0.194481596, 0.2248763, 0.192240417, 0., 0., 0., 0.,
          0.0332679488, 0.194042668, 0.17291908, 0., 0., 0., 0., 0., 0.,
          0.175031632, 0.0222887509, 0.087274529, 0.119528793,
          0.138550758, 0., 0.105455823, 0., 0.132647306, 0., 0.,
          0.16088973, 0.182786405, 0.120899618, 0.175836354, 0.17705512,
          0.145580247, 0.191505983, 0., 0.153381899, 0.135800868,
          0.138704687, 0.149610296, 0.188810185, 0.17322436,
          0.0960325822, 0.088882044, 0.0880101398, 0.110453092,
          0.124877892, 0., 0., 0.144463927, 0.122677363, 0.182686105, 0.,
          0., 0., 0.0465566888, 0., 0.388168246, 0.131973192, 0.1208084,
          0.0135752195, 0.068715632, 0.15628612, 0.115151383,
          0.111112095 ]
      - [ 0.224480063, 0.211703926, 0.152627543, 0.0567733534,
          0.14351429, 0., 0., 0.12633647, 0.166118711, 0.133478835,
          0.160236195, 0., 0., 0.027362017, 0.0372015685, 0.123419732,
          0.192174405, 0.05941936, 0., 0.107842863, 0.0575002655,
          0.135493875, 0.12311694, 0.0661225915, 0.115122959,
          0.137585521, 0.106413029, 0.125623107, 0.105969325,
          0.0953033492, 0.197956681, 0.20027864, 0.151125893,
          0.120071754, 0.152640373, 0.030955812, 0.179070488,
          0.161928594, 0.118975945, 0.119730279, 0.163466245,
          0.145702645, 0.139536902, 0.11038658, 0., 0.104107827,
          0.0692530721, 0., 0.14726384, 0., 0.153130308, 0.130121067,
          0.0420937836, 0.0379488468, 0.126820967, 0.156224668,
          0.161716163, 0.159608856, 0.157373056, 0.181424052,
          0.160871148, 0.0776281431, 0.065165177, 0.0794702247 ]
      - [ 0., 0.339503109, 0.167283371, 0., 0., 0., 0.0411384106, 0., 0.,
          0.107660405, 0.157186911, 0.057492841, 0., 0., 0., 0.,
          0.123410627, 0.257956743, 0.0867598951, 0., 0., 0., 0., 0.,
          0.103825979, 0.20823878, 0.111646079, 0.132496879, 0.159186482,
          0.0683568344, 0.158371627, 0.140714377, 0., 0., 0.168250695,
          0.0924674049, 0.133862078, 0.0995936096, 0.198843032,
          0.284592986, 0.0770519152, 0.0546354353, 0., 0.0844493955,
          0.0899473876, 0.119259953, 0.0998808146, 0.111001879,
          0.169045836, 0.204193354, 0., 0., 0., 0., 0.0043528527,
          0.217104152, 0.187971458, 0.285933584, 0.19946295,
          0.0366267525, 0., 0., 0.0873154029, 0.194781527 ]
      - [ 0.104246117, 0.0986771509, 0.232532129, 0.0848066807, 0.,
          0.122823268, 0., 0., 0.0483194739, 0., 0., 0., 0.,
          0.0478831381, 0.217231378, 0.106411286, 0.134227455,
          0.108424254, 0.238303229, 0.125994191, 0.0297661517, 0., 0.,
          0.0641632155, 0., 0.0618615299, 0.0271481778, 0., 0.32176885,
          0.111568868, 0.139344543, 0., 0.12660557, 0.0519359708,
          0.113755278, 0., 0., 0.254777163, 0.180349484, 0.10176599,
          0.22383225, 0.150139973, 0., 0., 0., 0., 0.131912664,
          0.127985731, 0., 0.0210288893, 0.0542436801, 0.224303469,
          0.221477434, 0.134512812, 0.107721664, 0.0909307823,
          0.0984132662, 0.214925379, 0.171947971, 0.257350385,
          0.228785709, 0.0434521325, 0., 0. ]
      - [ 0.147308841, 0.156592906, 0.256098241, 0.0799270496,
          0.19015117, 0.0545434915, 0.0057717301, 0.0595639087, 0.,
          0.141194716, 0.227341056, 0.101683661, 0., 0.103015661,
          0.112736918, 0., 0.222129121, 0.242725939, 0., 0., 0., 0., 0.,
          0., 0.0325577781, 0.00706889667, 0.0952859372, 0.136716694,
          0.0931163058, 0.0833675563, 0.102128543, 0.0895288959, 0.,
          0.161436155, 0.0472416729, 0.205598772, 0.176805362,
          0.113040932, 0.138744667, 0.11392381, 0.245897487,
          0.0424717627, 0., 0.122952476, 0.105140157, 0.118153021,
          0.074048847, 0.115964621, 0.1514083, 0.249030441, 0., 0., 0.,
          0., 0., 0., 0.273299992, 0.367161036, 0., 0., 0., 0., 0., 0. ]
      - [ 0.17025663, 0.23468022, 0.192943782, 0.163550064, 0., 0.,
          0.0606602021, 0.137167737, 0.116636842, 0.113064349,
          0.129987717, 0.131947681, 0., 0., 0., 0.0232221242,
          0.187577516, 0.0125023872, 0., 0.135615543, 0.131186604, 0.,
          0.122438326, 0., 0.0543496907, 0., 0., 0., 0.185917214,
          0.18791908, 0.195630446, 0.231827363, 0.216489166,
          0.0679556057, 0., 0.13650614, 0.131251991, 0.198959708,
          0.223507613, 0.0957330838, 0.156894863, 0.16352725, 0., 0.,
          0.104996473, 0.0763082057, 0.092533499, 0.0993812606,
          0.0692331716, 0.0977706164, 0.14723669, 0., 0.0191568509,
          0.0338173062, 0.0390386432, 0.150994733, 0.240765974,
          0.294204205, 0.124808073, 0., 0.096931614, 0.0585053563,
          0.0998526961, 0. ]
      - [ 0.0649419278, 0.20909977, 0.236679077, 0.221912369,
          0.114421405, 0., 0., 0., 0., 0., 0., 0., 0.192492351,
          0.232076019, 0.17856738, 0.0879203752, 0.145519927,
          0.285683751, 0.127044141, 0., 0., 0., 0., 0., 0.0770152509, 0.,
          0.197934553, 0.0693424866, 0.135559574, 0.134461522,
          0.0951899737, 0.0833545849, 0., 0., 0., 0., 0.172971189,
          0.154288456, 0.199993446, 0.237950921, 0.222061381,
          0.0424028449, 0., 0., 0., 0.0800287053, 0.0786327273, 0.,
          0.160742879, 0.0855634212, 0., 0., 0., 0., 0., 0.222829089,
          0.221203089, 0.276327878, 0.120837986, 0.0479859412, 0., 0.,
          0.124779813, 0.165070295 ]
      - [ 0.0191555843, 0.264179051, 0.264804393, 0., 0., 0., 0.,
          0.00767288031, 0., 0.189628273, 0.160714105, 0.0874402598, 0.,
          0., 0., 0.0399909019, 0.136075467, 0.0166608449, 0.0862636045,
          0.14189814, 0.100355186, 0., 0.0966997817, 0.0825357735,
          0.101781957, 0.0410255902, 0.0776793137, 0.190702319,
          0.159254014, 0.120885126, 0.133779496, 0.130590558,
          0.172467783, 0.188088879, 0.0688574016, 0.214034379,
          0.106486447, 0.133454159, 0.0957082137, 0.150075927,
          0.208975852, 0.141182497, 0.20931606, 0., 0., 0., 0.,
          0.0419621915, 0.181342259, 0.112702757, 0.133988991,
          0.0993348658, 0., 0., 0.0121225463, 0.160119385, 0.305800408,
          0.147011295, 0.0860166475, 0.114413403, 0.0878797993,
          0.146317378, 0.14609383, 0.125247851 ]
      - [ 0.198313653, 0.167346641, 0.152144238, 0.1261843, 0., 0., 0.,
          0.110922135, 0.141512737, 0.1569428, 0.151602894, 0., 0.,
          0.088029772, 0.0964365229, 0.0810048655, 0.124585234,
          0.138409674, 0.14826858, 0.217395768, 0.046297133,
          0.0505549274, 0., 0., 0., 0.0279233437, 0.158506855,
          0.174228534, 0.125046372, 0.121441521, 0.151440218,
          0.0445406251, 0.234301642, 0., 0.0308296252, 0.128570989,
          0.148076415, 0.143675193, 0.133680314, 0.167481482, 0.23726666,
          0.0598618723, 0., 0.128254563, 0.0803202391, 0.0922016501,
          0.0830325112, 0.118907876, 0.117232665, 0., 0.105917841,
          0.0846214443, 0.137134686, 0.248719618, 0.105978407, 0.,
          0.204850122, 0.0436451808, 0.177085876, 0.16918911,
          0.216302961, 0.148215756, 0.00670696981, 0. ]
      - [ 0.106658265, 0.11542777, 0.132333994, 0.246895939, 0., 0., 0.,
          0., 0., 0., 0., 0., 0.250536442, 0.0964216664, 0.103595994,
          0.126083419, 0.359053433, 0.0730413646, 0., 0., 0., 0., 0., 0.,
          0., 0., 0., 0., 0., 0.105185524, 0.179730982, 0.162848011,
          0.2536771, 0., 0., 0., 0.189151138, 0.139995962, 0.215361625,
          0.166645527, 0.288132668, 0.0308218095, 0., 0., 0.,
          0.0830047056, 0.144897997, 0.0565283895, 0.197670564, 0., 0.,
          0., 0., 0., 0.00854251813, 0.143775642, 0.433966756,
          0.118858099, 0.108554274, 0.104912192, 0., 0., 0., 0. ]
      - [ 0.207495764, 0.149366528, 0.110423125, 0.126890287,
          0.115843274, 0.119836986, 0.107840344, 0.122781001,
          0.239951938, 0., 0., 0., 0., 0., 0., 0.168740138, 0.145565242,
          0.23312135, 0.0248472262, 0.120597459, 0., 0.077173695,
          0.0580414683, 0.0396459587, 0.0453998819, 0.0156174749,
          0.249553829, 0.217307955, 0.0758270994, 0.104462162,
          0.0836207792, 0.0406061523, 0.143737316, 0.128721148,
          0.140745029, 0.137591958, 0.132235065, 0.0883047655,
          0.0781161487, 0.206595868, 0.217639923, 0.0513677672, 0., 0.,
          0.0104367947, 0., 0.00620575529, 0.212947324, 0.172333226, 0.,
          0.042648986, 0.107463792, 0.0801189244, 0., 0.0217938963,
          0.183151275, 0.26897639, 0.0768703818, 0.120461687, 0.12762484,
          0.164317235, 0.149535045, 0.10998477, 0.165976405 ]
      - [ 0.262530953, 0.0789166838, 0.137400597, 0.0487315208,
          0.100942351, 0., 0., 0., 0., 0., 0., 0., 0., 0., 0.00580641907,
          0.3100999, 0.413398027, 0.0433678888, 0., 0., 0., 0.,
          0.0535325371, 0.0468543395, 0., 0., 0., 0.0864776894,
          0.12054842, 0.170407012, 0.136420161, 0.124670938,
          0.0886553451, 0.100706778, 0., 0.0901786387, 0.126092941,
          0.109590918, 0.13645196, 0.343799591, 0.241854236,
          0.0129835475, 0., 0., 0., 0., 0.0778883919, 0., 0.038854111,
          0.104189463, 0.0423276871, 0., 0.0889651477, 0., 0.0174192581,
          0.180747002, 0.400618196, 0.168154016, 0.109979212,
          0.0401668027, 0.0889651477, 0.0655805841, 0.0338569507,
          0.0877128094 ]
      - [ 0.234984443, 0.102318637, 0.137390688, 0.271269262,
          0.0709763244, 0., 0., 0., 0.170380756, 0.063031137,
          0.0932151601, 0.190935925, 0.110306181, 0., 0., 0.0433414541,
          0.274330318, 0.0207127873, 0., 0., 0., 0., 0., 0., 0.,
          0.132554516, 0.0828333497, 0.0905263051, 0.0994974375,
          0.125386581, 0.136431292, 0.148459643, 0.186714485,
          0.0819831043, 0.183750927, 0.213466182, 0.0872503445,
          0.128515705, 0.0767305046, 0.0316680744, 0.281541228,
          0.175396055, 0.0712155253, 0., 0.107912228, 0., 0.135024399,
          0., 0.259992093, 0.0662370324, 0., 0., 0., 0., 0., 0.,
          0.384849161, 0.149974585, 0.120844834, 0.100648649, 0., 0., 0.,
          0.0761491731 ]
      - [ 0.168533921, 0.212565348, 0.268045753, 0., 0., 0., 0.,
          0.0727292821, 0.0968765318, 0.120177642, 0.225859404, 0.,
          0.0322623923, 0., 0., 0., 0.148653269, 0.0954472721,
          0.160174757, 0.127404571, 0.0435994677, 0.0913430974,
          0.119927704, 0.118932448, 0., 0.0538763031, 0., 0.126504228,
          0.234490588, 0.151378974, 0.152292296, 0.121293373, 0.,
          0.0280133374, 0.156293049, 0.269193023, 0.198758259,
          0.163899168, 0.10670393, 0.119473636, 0.112492681, 0.135775954,
          0.121535957, 0.129085094, 0.0972573534, 0.0796243772, 0., 0.,
          0.0563614331, 0., 0., 0.216028199, 0., 0.0673263669,
          0.100795805, 0., 0.096020937, 0.113435656, 0.251986891,
          0.29673624, 0.0937952623, 0., 0.0710364133, 0.0822596177 ]
      - [ 0.161502078, 0.133694261, 0.178896114, 0.234338537, 0., 0., 0.,
          0., 0., 0., 0., 0.226381347, 0.122129947, 0.145555794,
          0.124800026, 0.0898683369, 0.273675501, 0.236702651, 0., 0.,
          0., 0., 0., 0., 0., 0., 0., 0., 0.135648102, 0.0970547348,
          0.165855959, 0.111094043, 0.111454226, 0.107820168,
          0.0448130965, 0.164837956, 0.141104817, 0.149519056,
          0.223609895, 0.240529791, 0.168219104, 0.0247114208, 0., 0.,
          0.115150042, 0.13232109, 0., 0.0989962518, 0.193153635,
          0.112522736, 0., 0., 0., 0., 0.0307525769, 0., 0.288097471,
          0.378148496, 0.0989321619, 0., 0., 0., 0., 0. ]
      - [ 0.382438153, 0.173095301, 0.0825839341, 0., 0., 0., 0.,
          0.108181208, 0.0893695429, 0., 0., 0., 0., 0., 0., 0.,
          0.268338978, 0.0855346918, 0.0917192623, 0.04617057, 0.,
          0.0985589474, 0., 0., 0., 0., 0., 0., 0.110166416, 0.241051584,
          0.225097552, 0.21982041, 0., 0.0929357558, 0., 0.140108988,
          0.143015862, 0.171636596, 0.246778667, 0.160001531,
          0.254668504, 0.00734273903, 0., 0., 0., 0., 0., 0., 0., 0.,
          0.113142177, 0.0820578411, 0., 0., 0.206556439, 0.,
          0.279127628, 0.241309106, 0.296603352, 0.112025179, 0., 0., 0.,
          0. ]
      - [ 0.0256109945, 0.078220062, 0.146024674, 0.272366524,
          0.12795952, 0.0405779667, 0., 0.0344980732, 0., 0.0162617639,
          0.158054009, 0.231142715, 0.128391996, 0.086070314,
          0.131717503, 0.126074597, 0.165197611, 0.314504117, 0.14011012,
          0., 0., 0., 0., 0., 0., 0.105209254, 0.206591263, 0.0809771121,
          0.134864464, 0.0698462874, 0.146019191, 0.134431779,
          0.199457407, 0.140933856, 0., 0., 0.121437237, 0.19329676,
          0.215201199, 0.141403377, 0.201304972, 0.0154282032, 0., 0.,
          0.101821542, 0.10619849, 0.100394137, 0.0349210426, 0.,
          0.0949249566, 0.141471639, 0., 0.0488158464, 0.0309982225,
          0.123946317, 0.171415836, 0.0879470706, 0.280689389,
          0.180500895, 0.159588486, 0.0253886692, 0., 0., 0. ]
      - [ 0.15106988, 0.133543581, 0.159495369, 0.156365633, 0.137808144,
          0., 0.0638760254, 0.0139316935, 0.00527920481, 0.0206050742,
          0.227784619, 0.0245017987, 0.141761675, 0.0818480849,
          0.132538632, 0., 0.139297873, 0.128698736, 0.186877191,
          0.141542599, 0.151779354, 0., 0.0902221948, 0., 0.,
          0.0496380366, 0.105835602, 0.136687621, 0.16586794,
          0.159839094, 0.130217537, 0.136266947, 0.131920516,
          0.0252641588, 0., 0., 0.118327171, 0.233271897, 0.175652981,
          0.19929041, 0.130623579, 0., 0., 0., 0.135923654, 0.0815830678,
          0.130324453, 0.181196108, 0.111114539, 0.163091376,
          0.150370315, 0.128159791, 0., 0.075075902, 0.144163847,
          0.152770981, 0.0197023898, 0.286879659, 0.227240741,
          0.138543472, 0.0414381213, 0., 0.117625438, 0. ]
      - [ 0.123237193, 0.136858687, 0.216010928, 0.271120131,
          0.0417248979, 0., 0., 0., 0.0320857614, 0., 0.127296314,
          0.15609397, 0.114802234, 0.0994509086, 0.0888837799,
          0.103816517, 0.122761041, 0.168200225, 0.0783323795,
          0.0918824077, 0.127574876, 0., 0., 0., 0.0796789378, 0.,
          0.108771197, 0.157279164, 0.120938569, 0.165089637, 0.23072964,
          0.122235872, 0.0976321399, 0.0509450361, 0.143241346,
          0.225416332, 0.132687718, 0.0991412997, 0.160536706,
          0.115938634, 0.268797189, 0., 0., 0.0432368368, 0.0824206695,
          0.0940868109, 0.0505975746, 0., 0., 0.0670775399, 0.112827443,
          0.153036669, 0.0595533289, 0.0452816486, 0.163792893,
          0.169124573, 0.079724215, 0.199757442, 0.260334343,
          0.224750623, 0.045111835, 0.0853616521, 0.0651906803,
          0.10680531 ]
      - [ 0.210379779, 0.126810253, 0.123172335, 0.268188566,
          0.0636100844, 0., 0.15272148, 0., 0., 0.14804849, 0.0742490217,
          0., 0., 0., 0., 0.190173164, 0.195703149, 0.0114232833,
          0.097743839, 0.0980509222, 0., 0.0572475567, 0., 0.,
          0.128883511, 0.0731407851, 0.195934534, 0., 0.101005062,
          0.220370322, 0.17578873, 0.191142812, 0., 0., 0.0641070381,
          0.217160314, 0.178901479, 0.160735056, 0.134397924, 0.,
          0.112686388, 0.0952445716, 0.193348289, 0.254315048, 0., 0.,
          0., 0., 0.103538238, 0.0874665752, 0.173086718, 0., 0.,
          0.126980871, 0.229523733, 0.164404482, 0.116900876,
          0.148151591, 0.199780166, 0.102641046, 0.164576858,
          0.0765094683, 0., 0. ]
      - [ 0.267402411, 0.0493904576, 0.145302832, 0.102610938,
          0.0350084864, 0., 0., 0., 0., 0., 0., 0., 0., 0., 0.,
          0.355918199, 0.444672674, 0.0105195977, 0., 0., 0., 0., 0., 0.,
          0., 0., 0., 0., 0.132812902, 0.159198597, 0.132184386,
          0.0706900209, 0.0567988381, 0., 0., 0., 0., 0.172448993,
          0.175231695, 0.411082327, 0.0321795531, 0., 0., 0., 0., 0., 0.,
          0., 0.0377730206, 0., 0., 0., 0., 0., 0., 0.20273982,
          0.403517127, 0.140414178, 0.162563205, 0.134235397, 0., 0., 0.,
          0. ]
      - [ 0.0910732597, 0.123514757, 0.304576993, 0.185155019, 0., 0.,
          0., 0., 0.0256240238, 0.0323165767, 0.174491003, 0.172742695,
          0.0391723774, 0.0748851374, 0.0664333925, 0.0382833369,
          0.134513691, 0.0451190136, 0.0959406197, 0.119846836,
          0.118950382, 0.190574139, 0.0831467509, 0., 0., 0.0194619447,
          0.0331054889, 0.255550593, 0.156937182, 0.1492946, 0.187651724,
          0.0907217711, 0., 0.0831540972, 0.106046125, 0.14290233,
          0.224837333, 0.168787003, 0.131630465, 0.117076635,
          0.118375733, 0.147263035, 0.0827872306, 0.0760313272,
          0.0852764398, 0.0730901062, 0.111950874, 0., 0., 0.0533022471,
          0.217460349, 0.125610694, 0.049908001, 0.0890302137,
          0.0993449017, 0.110898681, 0.116019659, 0.164032087,
          0.231543183, 0.192880362, 0.199715987, 0.111277618,
          0.0138972718, 0.10906437 ]
      - [ 0.157276064, 0.132551208, 0.132502452, 0.103817686,
          0.153349474, 0., 0., 0.0796310455, 0., 0.112902515, 0.,
          0.0253006257, 0., 0., 0.257043213, 0.213813782, 0.171448946,
          0.190663487, 0.225264832, 0., 0., 0., 0., 0., 0., 0., 0., 0.,
          0.151115432, 0.214877784, 0.150832921, 0.165643737,
          0.0707804337, 0., 0., 0.0605644397, 0.258818269, 0.26110056,
          0.171933293, 0.168605, 0.123684101, 0.119396217, 0.132973343,
          0.11835438, 0.0841182098, 0.12199413, 0., 0., 0., 0.0808205158,
          0.0553884991, 0.0154447295, 0., 0., 0.00428359676, 0.203840017,
          0.27911371, 0.243831441, 0.138487056, 0.112181507, 0.156043649,
          0., 0., 0.0934460238 ]
      - [ 0.145619169, 0.237696692, 0.213735625, 0., 0., 0., 0., 0., 0.,
          0., 0.0819227025, 0.0831211507, 0.101322599, 0.106573477,
          0.118834257, 0.0682773292, 0.0365452617, 0.304787487,
          0.108184509, 0., 0., 0.0894196928, 0.129610494, 0.,
          0.0470642112, 0.128799126, 0.0244896356, 0.18108879,
          0.200460002, 0.177019417, 0.109956041, 0.0782113075,
          0.0691515654, 0.119109362, 0.146318182, 0.149600863, 0.,
          0.159255534, 0.105910286, 0.147390723, 0.207529992,
          0.251582921, 0., 0.0814808682, 0.0579479299, 0., 0.0878839567,
          0., 0., 0., 0., 0.0196295548, 0.218405932, 0.280127138,
          0.0887687281, 0.0765426531, 0.0485531203, 0.174478859,
          0.14911893, 0.197364703, 0.146514818, 0.221139684,
          0.0113851177, 0. ]
      - [ 0.310200483, 0.120460525, 0.0950084031, 0.131213725, 0., 0.,
          0., 0., 0.222131684, 0., 0., 0., 0., 0., 0.0531893671,
          0.0733273476, 0.27352953, 0.0329662599, 0., 0.0783871189, 0.,
          0.136513367, 0., 0.117503196, 0., 0., 0.081162177, 0.,
          0.173272625, 0.164228499, 0.17272003, 0.0598751381,
          0.254044801, 0.110340916, 0.0918561742, 0.0486057065,
          0.12891078, 0.122626334, 0.125666037, 0.142528415, 0.324525893,
          0.0783768371, 0., 0., 0., 0., 0., 0., 0.15148069, 0.177784786,
          0.152599573, 0., 0., 0., 0.0849874765, 0.179612607,
          0.298509538, 0.226481602, 0.123597205, 0.0856448039,
          0.139503404, 0.122569285, 0.0739200339, 0.0834263712 ]
      - [ 0.0897495821, 0.169934139, 0.223042667, 0.227886543, 0., 0.,
          0., 0., 0., 0., 0., 0.238140047, 0.151075527, 0.133588016,
          0.137408063, 0.0653216317, 0.18442665, 0.184366718,
          0.200601742, 0.123577714, 0., 0., 0., 0., 0., 0., 0., 0., 0.,
          0.238347411, 0.218243003, 0.0832094997, 0.174445689, 0., 0.,
          0.0833527446, 0.212584957, 0.180776, 0.122522034, 0.159455165,
          0.270532846, 0.0143427597, 0., 0., 0., 0.0953163952,
          0.118072078, 0., 0.147525117, 0.0835653096, 0.0624964647, 0.,
          0., 0., 0.0295689721, 0.161737159, 0.319521278, 0.253291249,
          0.138247758, 0.0939211771, 0., 0., 0., 0. ]
      - [ 0.0999689251, 0.152132794, 0.292741835, 0.195103839,
          0.00457626861, 0., 0., 0., 0.048638206, 0.0955774561,
          0.12701875, 0.177531213, 0.147222012, 0.064338088,
          0.0116844624, 0., 0.0954021737, 0., 0., 0.158060655,
          0.179793313, 0.103651918, 0.0707923993, 0.0744589046,
          0.0895235315, 0.139099166, 0., 0.0386111848, 0.26584959,
          0.148165822, 0.128654718, 0.172215149, 0., 0., 0., 0.,
          0.248119131, 0.154536426, 0.210532531, 0.098702319, 0.,
          0.0679814443, 0.204648808, 0.0424443074, 0.124698043,
          0.119751878, 0.121282019, 0.0940788165, 0.118939012,
          0.132560372, 0.160418242, 0.171521142, 0.123277031, 0.,
          0.0529719219, 0.12044432, 0.115556113, 0.151432529,
          0.172765583, 0.274535924, 0.0121076675, 0., 0., 0.0165967494 ]
      - [ 0.198887363, 0.0800662488, 0.291561514, 0.175349504, 0., 0.,
          0., 0., 0., 0., 0.181075081, 0.146897882, 0.162340418,
          0.169110954, 0.0851115659, 0.0348652229, 0.401417553,
          0.118104219, 0., 0., 0., 0., 0., 0., 0.0450020023,
          0.0789679214, 0.14925763, 0., 0., 0.10216105, 0.138413802,
          0.10308329, 0.172800109, 0., 0., 0., 0.172712088, 0.149747536,
          0.196674809, 0.219952896, 0.216931418, 0.0739463344, 0., 0.,
          0., 0.118133314, 0., 0.117993191, 0.135362074, 0., 0., 0., 0.,
          0., 0., 0., 0.424027771, 0.158363327, 0.0432717614, 0., 0., 0.,
          0., 0. ]
      - [ 0.206355199, 0.217935011, 0.064496614, 0.2075845, 0., 0., 0.,
          0., 0., 0., 0., 0.0591746159, 0., 0., 0.255090326, 0.12043912,
          0.269501805, 0.011273819, 0., 0., 0., 0., 0.0572094284,
          0.155125007, 0.109561644, 0.0893804431, 0., 0., 0.,
          0.181146413, 0.21287182, 0.227057189, 0., 0.0831967145, 0., 0.,
          0.209936321, 0.197610214, 0.228844151, 0.139234319, 0.21060881,
          0.154087543, 0.12925376, 0.0916765705, 0., 0., 0., 0.,
          0.0916369334, 0., 0.0819772705, 0., 0.0950065255, 0.0733554661,
          0.0335574113, 0.277079791, 0.222969264, 0.122032225,
          0.13628459, 0.214752704, 0.145969719, 0., 0.0465110466,
          0.120898381 ]
      - [ 0.0593168251, 0.131011561, 0.263189733, 0.232860357, 0., 0.,
          0., 0., 0., 0., 0., 0.193064585, 0.091789037, 0.083453685,
          0.107626192, 0.0909786671, 0.12414927, 0.139785737,
          0.257497221, 0., 0., 0., 0., 0., 0.0640924647, 0., 0.11959704,
          0.249723002, 0.147404268, 0.144548953, 0.123823695,
          0.112879284, 0.0721058026, 0.0872820988, 0.0824430585,
          0.1289334, 0.192121804, 0.219830588, 0.135682136, 0.0855197534,
          0.129930094, 0.181350514, 0.0816257, 0.053735666, 0.089432843,
          0.0418873765, 0.0908634216, 0., 0.080958046, 0., 0.229782075,
          0., 0.0900183469, 0.0942887366, 0.113485374, 0.133161351,
          0.135210693, 0.155687407, 0.312595546, 0.184282824,
          0.117426746, 0.0795951113, 0., 0.0690415651 ]
      - [ 0.0680984557, 0.143814519, 0.226019457, 0.253779262,
          0.0905751511, 0.0962049738, 0.0765704215, 0.0784226209,
          0.0353518911, 0.0757817924, 0.137075529, 0.181603268, 0.,
          0.0829429105, 0.106667899, 0.114868909, 0.110207364,
          0.150917441, 0., 0.0463317297, 0.144290879, 0.0725517422,
          0.0560448579, 0.0798866823, 0., 0.132708207, 0.0820765346,
          0.119615756, 0.195436746, 0.201046407, 0.177319348, 0.,
          0.0878923982, 0., 0.186390013, 0.158594534, 0.192194059,
          0.15200153, 0.0372825228, 0.0882597268, 0.115301095,
          0.124029271, 0.232554063, 0.110324316, 0.115698434, 0.,
          0.0480286442, 0., 0., 0., 0.142341509, 0.156395316,
          0.109656788, 0.171390757, 0.123901203, 0.0719912127,
          0.11338716, 0.176699311, 0.153018147, 0.197489843, 0.190930843,
          0.0901104063, 0.0259563364, 0.11069306 ]
      - [ 0.241215914, 0.153643996, 0.145417482, 0.083414048,
          0.174762905, 0.0253794882, 0., 0., 0.133147344, 0.109263144,
          0.0612002984, 0., 0.147636935, 0.0966556519, 0., 0.,
          0.159394011, 0., 0., 0., 0.141705975, 0.0949042737, 0.16275081,
          0.116838694, 0.161296234, 0., 0., 0., 0.208792165, 0.151078939,
          0.152579457, 0.190978914, 0., 0., 0.0280958116, 0.190844208,
          0.121609673, 0.189238757, 0.17748405, 0.163458765, 0.143335864,
          0.127342418, 0.101586729, 0.0700065494, 0.0774194375,
          0.166418523, 0.128792569, 0.136581317, 0.113689356,
          0.148773819, 0.164065719, 0.204825282, 0.00695372093, 0., 0.,
          0.100491434, 0.107328832, 0.209132135, 0.196407259, 0.23764953,
          0.0553392731, 0., 0.00754890824, 0.114440486 ]
      - [ 0.226668149, 0.150093704, 0.155339167, 0.182466328,
          0.112614855, 0.0959352404, 0.130273432, 0.048357714, 0.,
          0.102098927, 0.102587327, 0.0883374959, 0., 0.047941003,
          0.116690196, 0.0936542302, 0.0928381309, 0.109432139,
          0.0844767988, 0.248305216, 0., 0., 0., 0., 0., 0., 0.,
          0.147367239, 0.2372998, 0.247224241, 0.185997412, 0.0626398176,
          0., 0.00919760298, 0.150057703, 0.144904912, 0.243861943,
          0.132945061, 0.150784314, 0., 0.060528364, 0.0833928436,
          0.197593451, 0.218234688, 0., 0., 0., 0., 0., 0., 0.111051299,
          0.156180322, 0.118243933, 0.139556348, 0.149223208,
          0.143640533, 0.0859134048, 0.186531186, 0.234313384,
          0.187702253, 0.0755102411, 0.0865172967, 0.0873934776, 0. ]
      - [ 0.168900624, 0.184005126, 0.195152134, 0.165059313, 0., 0., 0.,
          0., 0., 0.173358142, 0.12836957, 0.119702265, 0.0864189118, 0.,
          0.0444247611, 0., 0.229395345, 0.0959178954, 0., 0.183176607,
          0.103484027, 0.109877974, 0., 0.0889437944, 0., 0.,
          0.0359650068, 0.227287591, 0.108522393, 0.128152505,
          0.129875898, 0.145564079, 0.122033916, 0.124532208,
          0.134085968, 0., 0.267172933, 0.136221677, 0.142112732,
          0.167055905, 0.169756219, 0.030469235, 0., 0.0922066122,
          0.161179572, 0.113262914, 0., 0.0355154499, 0.0942602456,
          0.201971725, 0.146072, 0., 0., 0., 0., 0., 0.321016788,
          0.266015977, 0., 0.10157752, 0.0770253688, 0.141743198,
          0.0967419893, 0.037879739 ]
      - [ 0.272261262, 0.188683346, 0.0974403545, 0.148893937,
          0.0576953627, 0.106696606, 0.111296184, 0.150575191, 0., 0.,
          0., 0., 0., 0., 0., 0., 0.189594507, 0., 0.0946905911, 0., 0.,
          0., 0.0769535154, 0., 0., 0., 0., 0., 0.191974044, 0.213031039,
          0.224801719, 0.282554239, 0.201261371, 0.135986686,
          0.0689930096, 0.156998858, 0.0716953576, 0.0980533287,
          0.146988258, 0.188924834, 0.275882661, 0.0989608169, 0., 0.,
          0., 0., 0., 0.0925080553, 0.055241514, 0., 0., 0.0849860907,
          0.107257865, 0.112991214, 0.156768382, 0.167235374,
          0.304909319, 0.148335963, 0.213095531, 0.185846105,
          0.091971755, 0., 0., 0. ]
      - [ 0.0437550321, 0.114531353, 0.198711917, 0.213173702,
          0.0899115726, 0., 0., 0., 0., 0., 0.0315314457, 0.180776939,
          0.19720988, 0.0819832608, 0.0968148783, 0.0813576356,
          0.0308125876, 0.25532347, 0.21564126, 0., 0., 0.0623334199,
          0.0678921118, 0., 0., 0., 0., 0.105611995, 0.226640567,
          0.148765817, 0.1013624, 0.0737454593, 0., 0.134701014,
          0.122753613, 0.138536513, 0.221687898, 0.149940878,
          0.105836049, 0.149652362, 0.151023716, 0.210294157, 0.,
          0.0381317213, 0.112846076, 0.131222203, 0.122072749, 0., 0.,
          0., 0.0535028018, 0., 0.280696541, 0.14066416, 0.128061906,
          0.0704962164, 0.0288727414, 0.227141112, 0.136556521,
          0.292923599, 0.156577334, 0., 0., 0. ]
      - [ 0.2934089, 0.290166408, 0., 0., 0.0925234109, 0.114803083,
          0.0321561061, 0.0829324499, 0.177228138, 0.0436882526, 0., 0.,
          0., 0., 0., 0., 0.293510407, 0.078166537, 0., 0., 0.0976399332,
          0., 0.132714435, 0., 0., 0.157404557, 0.16241771, 0.182443723,
          0.191361159, 0.102189936, 0.102489002, 0.0768305808, 0., 0.,
          0., 0.23198238, 0.11938794, 0.170604303, 0.180241719,
          0.0820960626, 0.191366076, 0.183281049, 0., 0.0713609159,
          0.0839941353, 0., 0., 0., 0.100276984, 0.0678434148,
          0.135082334, 0.184799328, 0.0461541153, 0., 0.0414716341,
          0.117123008, 0.186095104, 0.139704153, 0.260753632,
          0.176030234, 0.169305757, 0.0679994226, 0.0981132612, 0. ]
      - [ 0.135931939, 0.196204782, 0.18822515, 0.132922933, 0.13179484,
          0., 0., 0.11951232, 0.202945605, 0.100083627, 0.0821936727,
          0.0281498656, 0.140560836, 0., 0., 0.174612567, 0.159402311,
          0.245657459, 0., 0.105778381, 0.103152536, 0., 0.0847076252,
          0., 0.046266418, 0., 0.131676599, 0., 0.163845897, 0.162934899,
          0.171572313, 0.154670402, 0.051641278, 0.136589363,
          0.0928940624, 0., 0.167540073, 0.262088388, 0.154768214,
          0.0776667967, 0.166233927, 0.145526022, 0., 0., 0.0651616678,
          0.100540794, 0.115307823, 0.203128159, 0.104627661, 0.,
          0.144772872, 0., 0., 0., 0., 0.0631274432, 0.215582862,
          0.361836642, 0.0593383051, 0., 0., 0.056909591, 0.0903112143,
          0.0751857385 ]
      - [ 0.197240055, 0.140367389, 0.118255727, 0.0775517747,
          0.225165278, 0.0514770374, 0.0983871296, 0., 0.101822697,
          0.0547566973, 0.0994053632, 0.0804082304, 0., 0.0354810506,
          0.178498313, 0.192381889, 0.0866441727, 0.136609435,
          0.226558298, 0., 0., 0.0494274572, 0., 0., 0.0170730036, 0.,
          0., 0.144654498, 0.105713703, 0.177799046, 0.234767258,
          0.152786046, 0., 0., 0.0365174934, 0.223636344, 0.223125473,
          0.0963918567, 0.137431905, 0.0611340515, 0.108751923,
          0.0899638087, 0.189303324, 0.273922145, 0., 0., 0., 0., 0.,
          0.124137588, 0.0881975219, 0., 0., 0.169836342, 0.268566847,
          0., 0.159075424, 0.243786022, 0.204291731, 0., 0., 0.,
          0.0848890692, 0.120163105 ]
      - [ 0., 0.167171583, 0.0769389197, 0.1533335, 0.186700851,
          0.0601912364, 0., 0., 0., 0., 0., 0., 0.159668401, 0.205138683,
          0.121156991, 0.0506484434, 0.14028959, 0.225277245,
          0.195015326, 0., 0.0884696543, 0.0469985344, 0.0794994384,
          0.0746441707, 0.0735152289, 0.0937904194, 0., 0.188700527,
          0.141217709, 0.159282908, 0.108810157, 0.0358799994, 0.,
          0.136590824, 0.170829833, 0., 0.145545691, 0.23843725,
          0.155567348, 0.0910197422, 0.164129138, 0.174013719,
          0.110600948, 0., 0.125204682, 0.131234005, 0.127539486, 0.,
          0.0325599834, 0.00695220893, 0.0687370598, 0.297323823,
          0.116867289, 0.057752803, 0.0729872584, 0.0621751584, 0.,
          0.217486054, 0.223019302, 0.292316586, 0.0282392856, 0., 0.,
          0. ]
      - [ 0.0693122745, 0.161446556, 0.158073798, 0.154612198,
          0.207889438, 0.103462867, 0.00494317338, 0., 0., 0., 0.,
          0.165816814, 0.129933506, 0.130418628, 0.12371619, 0., 0.,
          0.0725196898, 0.165657029, 0.233122587, 0.16790019, 0., 0., 0.,
          0., 0., 0.0413152911, 0.243534893, 0.253142208, 0.177857339,
          0.0439358875, 0.153105736, 0.140775919, 0.147239432, 0.,
          0.166624576, 0.200139135, 0.197438851, 0.195616543,
          0.185061172, 0., 0., 0., 0., 0., 0., 0., 0.109093234, 0., 0.,
          0.144860193, 0., 0.120547868, 0.0718942955, 0.132418975,
          0.112785414, 0., 0.0636337325, 0.138445839, 0.406084299,
          0.0219951738, 0., 0., 0. ]
      - [ 0.173457146, 0.134221047, 0.120128699, 0.157376125,
          0.159708738, 0.102884963, 0., 0.066984944, 0.0765929669,
          0.0892667845, 0.108142965, 0., 0., 0., 0.0551516265,
          0.280782402, 0.287963748, 0.0486355647, 0., 0., 0.0408843309,
          0.0825281963, 0.0508256666, 0.0987205133, 0., 0.0354372486,
          0.0822793096, 0.0635260344, 0.197350711, 0.143588543,
          0.0981923416, 0.191181153, 0., 0., 0., 0.203153282,
          0.297302186, 0.161637917, 0.131696865, 0.126025721, 0.08204294,
          0.0945543274, 0.145387024, 0.269963712, 0.0297817867, 0., 0.,
          0., 0.0537096225, 0., 0.0630443618, 0.084784992, 0.0423815586,
          0.129994377, 0.153012812, 0.124559216, 0.176005051,
          0.228514284, 0.152449831, 0.204700589, 0.112475388, 0.,
          0.0547174811, 0.0744758323 ]
      - [ 0.166330874, 0.113243535, 0.226420894, 0.19534637, 0., 0., 0.,
          0., 0., 0., 0., 0.106107861, 0.191503853, 0.129280552,
          0.145175487, 0., 0., 0.0889282301, 0.0726966709, 0.137132928,
          0.249930337, 0.0353234261, 0.00396439154, 0., 0.,
          0.00560649624, 0., 0.0832900777, 0.263277799, 0.169379205,
          0.133074611, 0.0812977552, 0., 0.0953138843, 0.0944094583, 0.,
          0.164734498, 0.224802241, 0.184412673, 0.194766223,
          0.179224864, 0.0297670737, 0., 0., 0.157910928, 0.111982524,
          0., 0., 0., 0.121104449, 0.104393676, 0.155909836, 0.157520801,
          0., 0.0397740975, 0.179691359, 0.174411908, 0.197220936,
          0.162583351, 0.224416152, 0.088611193, 0.167993024,
          0.133890718, 0.112150975 ]
      - [ 0.0810987204, 0.296904564, 0.112003982, 0.120313041,
          0.130223662, 0.0260913223, 0., 0., 0.0554244258, 0.0900506005,
          0., 0., 0.114110976, 0.144549146, 0.0742431134, 0.0933291018,
          0.219582751, 0.072505258, 0., 0., 0.0748349577, 0.0956831574,
          0.0845424235, 0.122188829, 0.178510636, 0.122303724, 0., 0.,
          0.165116072, 0.155391738, 0.175653979, 0.184962779,
          0.0864892378, 0., 0., 0., 0.0470200926, 0.245696574,
          0.232114881, 0.205557302, 0., 0.151710227, 0., 0.121267483,
          0.0525893979, 0., 0.0790080279, 0.161461473, 0.155740559,
          0.149692193, 0.162405983, 0.125672698, 0., 0., 0.0266663954,
          0.185945213, 0.159406364, 0.260439903, 0.164565042,
          0.212046921, 0., 0.0390331857, 0., 0.133303389 ]
      - [ 0.116148591, 0.0378948115, 0.164934188, 0.294927627,
          0.217547849, 0., 0., 0., 0., 0., 0., 0.213026389, 0.119307362,
          0.108764783, 0.0700245351, 0.0345763639, 0.0945999026,
          0.148947358, 0.113794394, 0.0858370885, 0.0853530914,
          0.0635251403, 0.0675994381, 0.0769941285, 0., 0., 0.0807325318,
          0.213870138, 0.199731454, 0.186442941, 0.140718535,
          0.146823183, 0.054411836, 0.0866852924, 0.109025083,
          0.0970595554, 0.257752627, 0.157758489, 0.125589937,
          0.164870024, 0.188196197, 0.0434669629, 0., 0.115093507,
          0.120310158, 0.0860539526, 0.0836477354, 0.108592816,
          0.0326369703, 0.0551741794, 0.0448822565, 0.0489503816,
          0.0605393685, 0.114539266, 0.223252475, 0.0828800276,
          0.0763056949, 0.0723327696, 0.256991923, 0.151186809,
          0.109314524, 0.198312819, 0.118081935, 0. ]
      - [ 0.160677686, 0.340867579, 0.140805796, 0., 0., 0.0433920138,
          0., 0.0904965252, 0., 0.0861389413, 0.0466274768, 0., 0., 0.,
          0., 0., 0.161183745, 0., 0., 0., 0., 0.0756843537,
          0.0945918635, 0., 0., 0.097089, 0.0932462439, 0., 0.,
          0.215439335, 0.261823446, 0.209346876, 0., 0.196108192,
          0.158195868, 0.0737539083, 0.129225776, 0.140185162,
          0.187553987, 0.0757773593, 0.156734779, 0.316180438,
          0.11865335, 0., 0., 0., 0., 0., 0.0929683149, 0., 0.0572197102,
          0.0848680064, 0.0839540064, 0.246874899, 0.202456817,
          0.174007505, 0.145914987, 0.112845339, 0.170062706,
          0.177410662, 0.236146599, 0.0869071558, 0., 0. ]
      - [ 0.348255992, 0.239227816, 0.112714268, 0., 0., 0., 0.,
          0.156427324, 0., 0., 0., 0., 0., 0., 0., 0., 0.190903693,
          0.00736218598, 0.0411604792, 0., 0., 0., 0., 0.0911247209,
          0.171921, 0., 0., 0., 0., 0.0787156597, 0.244985372,
          0.336046726, 0., 0., 0.135648161, 0.121631444, 0.137284696,
          0.162365511, 0.144405484, 0.0877398178, 0.260651231,
          0.195117146, 0.209631175, 0., 0.0579482205, 0., 0., 0., 0., 0.,
          0., 0., 0., 0., 0.325893104, 0.202267304, 0.17909193,
          0.135461852, 0.12254703, 0., 0.141867504, 0.182891145,
          0.0521053039, 0. ]
      - [ 0.149443865, 0.141718566, 0.129185438, 0.102057159,
          0.220659286, 0., 0.0644877031, 0.0735184252, 0., 0.0732767805,
          0.0793239176, 0.0891246349, 0., 0., 0.136857212, 0.246570662,
          0.281157076, 0.0123471478, 0.0461390279, 0., 0.0904795825,
          0.0868034735, 0.0693534762, 0.117179193, 0.0893279165,
          0.0743120611, 0.0634731501, 0.118316807, 0.124731563,
          0.099864535, 0.165384859, 0.251721054, 0.0671558678, 0., 0.,
          0., 0.277787954, 0.139655054, 0.105710976, 0.131078884,
          0.0129494667, 0.181328401, 0.168184176, 0.203359678,
          0.0568838343, 0.0744591579, 0., 0.0562299937, 0.0766634718,
          0.101840287, 0.079542473, 0., 0., 0.193646193, 0.203930929,
          0.188675821, 0.0941915959, 0.207765102, 0.225299254, 0., 0.,
          0.0933352485, 0., 0.129558876 ]
      - [ 0.18665418, 0.218349174, 0.190679878, 0.163801178,
          0.0902657583, 0.0870644525, 0., 0.0816060305, 0., 0.12000186,
          0.135914832, 0.0987809673, 0., 0.048278559, 0., 0.,
          0.102598697, 0.0491469875, 0.0708887726, 0.146495849,
          0.211325303, 0.0817996487, 0.0332050882, 0., 0., 0., 0.,
          0.130259857, 0.280902863, 0.172761843, 0.203653872,
          0.0807485953, 0., 0., 0.156020164, 0.127746999, 0.21000649,
          0.134154037, 0.0614376105, 0.117624074, 0.072916463,
          0.0834778845, 0.235964805, 0.188884854, 0., 0., 0., 0.,
          0.109241523, 0.0602072515, 0.100600563, 0.164092705,
          0.161623091, 0.179065615, 0.168393463, 0.099122107,
          0.130530059, 0.093534492, 0.197659254, 0.201138616,
          0.162369132, 0.127847672, 0.0184227377, 0. ]
      - [ 0.152801514, 0.110275649, 0.16653809, 0.170309961, 0.118773729,
          0., 0.102991931, 0.0944077075, 0.099298507, 0.108027816,
          0.0967395678, 0., 0., 0., 0.185326234, 0.119155519,
          0.0861695111, 0.190523013, 0., 0., 0.122241318, 0.0670923218,
          0.127793059, 0., 0.106098078, 0.107876368, 0.0912857652,
          0.146128416, 0.149536416, 0.124592505, 0.187705994,
          0.168441623, 0.0799529329, 0.104120448, 0.080201298,
          0.210734695, 0.152390048, 0.134298876, 0.16635111, 0.116000697,
          0.167811215, 0.134700954, 0.128868297, 0.112203516,
          0.0804360658, 0.100943767, 0., 0.0904351324, 0., 0.,
          0.0915653035, 0.173825741, 0.124645591, 0.204701826,
          0.0823832452, 0.126748577, 0.160983875, 0.131706879,
          0.133003637, 0.213229388, 0.185939446, 0.189000785,
          0.121293053, 0. ]
      - [ 0.069536373, 0.164202943, 0.26889345, 0.13816683, 0.14034389,
          0., 0., 0., 0., 0., 0.0204940848, 0.169997156, 0.188580677,
          0.0923722088, 0.0993556231, 0.0781513005, 0.160717338,
          0.0960544571, 0.0873164162, 0.20301874, 0.188720018, 0., 0.,
          0., 0., 0., 0., 0.258785009, 0.180166334, 0.1568131,
          0.145588323, 0., 0.0842852369, 0.170700386, 0., 0.,
          0.161304712, 0.15221104, 0.163113073, 0.242275596, 0.184614182,
          0., 0., 0., 0.0771211162, 0.0929737762, 0.0759059489,
          0.0823970735, 0.0912011936, 0.0947901309, 0.162439048,
          0.123536989, 0., 0., 0.0818825588, 0.192602858, 0.153140977,
          0.157517061, 0.182824001, 0.232049003, 0.128513798,
          0.0707313418, 0.0883163735, 0.0585345663 ]
      - [ 0.0897706598, 0.111006774, 0.11264924, 0.149590939, 0.10531126,
          0.16187036, 0.166520104, 0.213559896, 0.139728487,
          0.0654670224, 0., 0., 0., 0., 0.221043065, 0.215217903, 0., 0.,
          0., 0.0695070773, 0.108410835, 0., 0.0703899264, 0., 0., 0.,
          0., 0., 0.061161641, 0.177507013, 0.282491177, 0.230811581, 0.,
          0.123621471, 0.29737547, 0.19829157, 0.158257082, 0.,
          0.0127005167, 0.0146401674, 0.0392435268, 0.0954606608,
          0.237836123, 0.184719086, 0.0924899578, 0., 0., 0., 0.,
          0.0483369529, 0.111370251, 0., 0., 0.0785502493, 0.208094239,
          0.178758398, 0.148633674, 0.215344563, 0.141438872,
          0.182038784, 0.148886055, 0.0823237076, 0., 0. ]
      - [ 0.136021271, 0.149892509, 0.159662828, 0.121820658,
          0.149565518, 0., 0.0565514304, 0.0735633373, 0., 0.0587916449,
          0., 0.195151418, 0.123142987, 0.1147165, 0.108121984, 0.,
          0.0840981081, 0.107034557, 0.0317501016, 0.0945405066,
          0.186099663, 0.237523019, 0.0621269085, 0., 0., 0.0152639821,
          0.00856151152, 0.0501493439, 0.207318082, 0.241575643,
          0.131742135, 0., 0., 0., 0.066953674, 0.22043328, 0.150998384,
          0.250067472, 0.0903917849, 0., 0.110813946, 0.068734847,
          0.114000373, 0.180757418, 0.177236065, 0., 0., 0.0290140808,
          0.118673138, 0.086172685, 0.133305043, 0.204878569,
          0.119808741, 0.0579550862, 0.118140392, 0.168370739,
          0.124760866, 0.126785696, 0.207241058, 0.211646348,
          0.126753092, 0.168019444, 0.121663176, 0. ]
      - [ 0.118344158, 0.0715039074, 0.1772632, 0.26290226, 0.0628779083,
          0.131968856, 0., 0.105744287, 0.0194576662, 0.110350288,
          0.114613362, 0.109792314, 0.11979638, 0.160816029, 0.1381547,
          0.0764959902, 0.106340967, 0.0143642956, 0.0475709327,
          0.104931504, 0.171311751, 0.107004814, 0.0797405764, 0.,
          0.0487088338, 0.0851504058, 0., 0., 0.140925825, 0.252245426,
          0.178382561, 0.168078631, 0., 0.0851888955, 0.142846391,
          0.199388161, 0.21928294, 0.176865801, 0.13930884, 0.,
          0.158022493, 0.0998388305, 0.141162783, 0.122977592,
          0.13799575, 0.0959774107, 0.0781706572, 0.0775530711,
          0.0288184751, 0.0461103618, 0.137706563, 0.0814020261, 0., 0.,
          0.208311424, 0.143015817, 0.0962280035, 0.14903833,
          0.187691376, 0.241933182, 0.0947267935, 0.100872867, 0.,
          0.0802025795 ]
      - [ 0.149344116, 0.183498904, 0.223014191, 0.143706739,
          0.106676161, 0.120734856, 0.121987678, 0., 0., 0.144784719,
          0.159952655, 0., 0., 0.0501396991, 0.143764555, 0.142941505,
          0.153572217, 0.26359871, 0., 0., 0., 0., 0., 0., 0.031096952,
          0., 0., 0.123801604, 0.18665272, 0.212169498, 0.0929391459,
          0.0981474593, 0., 0.143419206, 0.185442939, 0.109518103,
          0.21782279, 0.185402334, 0.15118286, 0.159471989, 0.109725229,
          0.199077159, 0., 0., 0.148742929, 0., 0.107347153, 0.,
          0.118515171, 0.11843738, 0., 0., 0., 0., 0., 0., 0.229179755,
          0.374624312, 0.0917797387, 0., 0., 0.0992392078, 0.0998134091,
          0.0599568263 ]
      - [ 0.344585627, 0.177537933, 0.0598687306, 0., 0., 0., 0., 0., 0.,
          0., 0.049378518, 0., 0., 0., 0., 0.0716843084, 0.29723084, 0.,
          0., 0., 0., 0., 0.101323523, 0.0668682083, 0.17024155, 0.,
          0.02434697, 0., 0., 0.196853772, 0.157158151, 0.148600191,
          0.0344078429, 0.0956841111, 0.153290093, 0.149408013,
          0.11120908, 0.145540267, 0.14594087, 0.162237659, 0.262715191,
          0.224265039, 0.104678601, 0.0771152154, 0.0123020709, 0., 0.,
          0., 0.165552601, 0.169230029, 0., 0.0878205672, 0.0961138755,
          0.158677459, 0.204514995, 0.189546466, 0.12114004, 0.234858245,
          0.203106865, 0.156747118, 0.155924693, 0.0253565516,
          0.100743666, 0. ]
      - [ 0.26124537, 0.207006797, 0.14162612, 0.136604592, 0., 0., 0.,
          0.0465154015, 0.180852741, 0.17017217, 0.0797323361, 0., 0.,
          0., 0., 0., 0., 0.0530787297, 0.0542357527, 0.13895914,
          0.0946502984, 0.0817395076, 0.0674796999, 0.0718103796,
          0.202787459, 0., 0., 0., 0.144284278, 0.171240628, 0.199902624,
          0.256311238, 0.16953443, 0., 0., 0., 0.175812349, 0.161799461,
          0.210702583, 0.205439314, 0.0568153262, 0.055767145,
          0.0849639326, 0.0974034294, 0.1413223, 0., 0.0848450363,
          0.137446448, 0.117921315, 0.216747567, 0.18482691,
          0.0345950425, 0., 0., 0., 0., 0.269535512, 0.215157598,
          0.265227735, 0.0747293979, 0., 0., 0., 0. ]
      - [ 0.164954573, 0.211254731, 0.233645737, 0.183546185, 0., 0., 0.,
          0., 0., 0., 0., 0.191510946, 0.103398398, 0.117806159,
          0.0325857215, 0.0713131204, 0.205846727, 0.174483478,
          0.177672952, 0., 0.0180052239, 0.0407924689, 0.0235399604,
          0.0487225428, 0., 0.0334593877, 0., 0.209076613, 0.209824115,
          0.0795502141, 0.111123033, 0.0648026988, 0., 0.125662804, 0.,
          0.145661056, 0.157530561, 0.152104095, 0.149056047,
          0.139914826, 0.219096661, 0.175109833, 0.136133999, 0.,
          0.0396016426, 0.078810364, 0.0535605401, 0.101559334, 0., 0.,
          0.0461243317, 0.250465244, 0.15679948, 0.10767895, 0.08511246,
          0.172122017, 0.131425798, 0.154698819, 0.117074482,
          0.308578223, 0.135993913, 0., 0., 0. ]
      - [ 0.113929585, 0.216872618, 0.257492036, 0., 0.031196516,
          0.0927159563, 0.0692516342, 0., 0.0763397366, 0.125577629, 0.,
          0., 0.0311880745, 0., 0.0819120929, 0.115213193, 0.0808191225,
          0.0461209752, 0.109336682, 0.207810402, 0.127121478,
          0.020753162, 0., 0., 0., 0., 0.0419144668, 0., 0.317916155,
          0.207877696, 0.110873975, 0.0533028729, 0., 0., 0.147243395,
          0.18885529, 0.136626869, 0.200487122, 0.101318136, 0.,
          0.0968632028, 0.176800087, 0.201376602, 0.200370297, 0., 0.,
          0., 0., 0.108801819, 0.0608536676, 0.105424918, 0.201249778,
          0.143708706, 0.180326641, 0.0632276908, 0.219679356,
          0.0932436585, 0.131432474, 0.152673215, 0.216442704,
          0.19909732, 0.137972072, 0., 0. ]
      - [ 0., 0.0418265946, 0.183933839, 0.252103865, 0., 0., 0., 0., 0.,
          0.0138943652, 0.0574437752, 0.255919337, 0.127359703,
          0.0750436112, 0.092471227, 0.0852555931, 0.141980246,
          0.189902559, 0.23915641, 0., 0., 0., 0., 0., 0., 0.0931647271,
          0.12352705, 0.0912927985, 0.152822882, 0.0990431607,
          0.139652774, 0.11202915, 0.203721985, 0.0865046307, 0.,
          0.137797773, 0.137603402, 0.165528074, 0.149683535,
          0.185604483, 0.209880039, 0.0505064614, 0., 0.137322634, 0.,
          0.152597114, 0., 0.123108536, 0.17860724, 0.107267059,
          0.149295628, 0.0776992068, 0.0347823054, 0.159051612,
          0.141594931, 0.127265275, 0.193126768, 0.213959858,
          0.211653858, 0.177866206, 0.10484191, 0.0382783897, 0.,
          0.0421884395 ]
      - [ 0., 0.128685713, 0.203066528, 0.193504751, 0.116415694,
          0.133954942, 0.0453713164, 0.126761913, 0.0358575508,
          0.0731348246, 0.0992597491, 0.0955863521, 0.0766264349, 0.,
          0.148529872, 0.135792613, 0.120167553, 0.108868226,
          0.155700535, 0., 0.0785610452, 0., 0., 0., 0., 0., 0., 0.,
          0.221711665, 0.253317147, 0.113145694, 0.0683240369, 0.,
          0.0166031439, 0.213603824, 0.203213528, 0.163343087,
          0.0979959592, 0.11232572, 0.0448077694, 0.136894956,
          0.0513719805, 0.246070728, 0.189911723, 0.0955196843, 0., 0.,
          0., 0.0594013818, 0.121133976, 0.170507878, 0., 0.118490763,
          0.214767113, 0.166649848, 0.0993811414, 0.170652732,
          0.220258161, 0.199163526, 0.14988555, 0.0874433294,
          0.149723828, 0., 0.124457158 ]
      - [ 0.136696666, 0.204507083, 0.201767191, 0.247367203, 0.,
          0.086386174, 0., 0., 0.0595169999, 0.064294599, 0.,
          0.149316832, 0.12463899, 0.100434586, 0.106798247,
          0.0789860189, 0.304440886, 0.205257446, 0., 0., 0., 0., 0., 0.,
          0.0638691336, 0., 0.0541900098, 0.192273036, 0.171500906,
          0.109712921, 0.10331329, 0.09209048, 0., 0.0918872282,
          0.0938378125, 0.153969318, 0.182933837, 0.134594932,
          0.104641087, 0.276319534, 0.157856956, 0., 0., 0., 0.110615276,
          0.136585787, 0.0421158932, 0., 0.150499031, 0.152151212, 0.,
          0.0247545596, 0., 0., 0., 0., 0.371686786, 0.27804473, 0., 0.,
          0., 0., 0.0917460546, 0.0988621786 ]
      - [ 0.0205112975, 0.127394304, 0.16380097, 0.229809642, 0., 0., 0.,
          0., 0., 0.0188270006, 0., 0.221950203, 0.154159859,
          0.0787452906, 0.0908830017, 0.0910580903, 0.120671369,
          0.134841248, 0.144835562, 0.186854333, 0.183865666,
          0.064757362, 0.0449744388, 0.0284167696, 0., 0., 0.0814639404,
          0.190425992, 0.187560469, 0.0948962644, 0.158447623,
          0.146967009, 0.18000406, 0., 0., 0., 0.134823591, 0.126927376,
          0.165472507, 0.290139794, 0.127687141, 0., 0., 0., 0.,
          0.12959747, 0., 0.217166409, 0.131100968, 0.122458018,
          0.0874015018, 0., 0.177855, 0.135350391, 0.109658971,
          0.117964566, 0.220717654, 0.0522263311, 0.232592463,
          0.195463806, 0.162303075, 0., 0., 0. ]
      - [ 0.220613405, 0.264691293, 0.178435534, 0., 0.105967119, 0.,
          0.103836142, 0., 0., 0.129209578, 0.0611781739, 0.0868396312,
          0., 0., 0., 0., 0.0353312716, 0.00386677496, 0., 0.03585051,
          0., 0.124231212, 0.150521979, 0., 0.106240802, 0.0665253773,
          0.107634254, 0.098790884, 0.142282739, 0.189876422,
          0.173834279, 0.263975292, 0., 0., 0.137923181, 0.162372261,
          0.247191668, 0.179921016, 0.195188954, 0.0717319027,
          0.0797348469, 0.153487414, 0.219233945, 0.0554754324,
          0.102024473, 0., 0., 0., 0.0985697359, 0.10534247, 0.,
          0.15260148, 0.134932086, 0., 0.0592530072, 0.163703784,
          0.203274518, 0.173351824, 0.14380008, 0.181955531, 0.200039238,
          0.119384818, 0.121207617, 0.0723652318 ]
      - [ 0.019630475, 0.114203013, 0.215041414, 0.266550928,
          0.0921915025, 0., 0., 0., 0., 0., 0.10923259, 0.204778656,
          0.190831453, 0.0964186341, 0.0993076116, 0.113889836,
          0.157189667, 0.153016806, 0.13936314, 0.214403495, 0., 0., 0.,
          0., 0.0543662608, 0., 0., 0.170098394, 0.19966504, 0.146068111,
          0.110906556, 0.127695829, 0.081812717, 0., 0.133024186,
          0.0816879198, 0.256322831, 0.137704, 0.126407325, 0.13274534,
          0.0757692009, 0.159792542, 0.191313386, 0.0242634639,
          0.146041781, 0.105905369, 0.0345375314, 0.0784946233,
          0.121244222, 0., 0.121980347, 0., 0.0637712777, 0.181111783,
          0.140112057, 0.137284636, 0.12514706, 0.220826566, 0.230953306,
          0., 0.0607268587, 0.138164937, 0., 0. ]
      - [ 0.138842821, 0.173312843, 0.148467451, 0.171267435, 0.,
          0.0393703841, 0.0929831937, 0., 0., 0.0965345502, 0.073351644,
          0., 0.0413532555, 0.0936484486, 0.131273106, 0.208180591, 0.,
          0.104249589, 0.122660339, 0.199567556, 0.107630335, 0., 0., 0.,
          0., 0., 0., 0.149010122, 0.180073321, 0.219951123, 0.112939171,
          0.102181859, 0., 0.0109462468, 0.129946262, 0.232985526,
          0.127814516, 0.218634427, 0.135049596, 0.098439917, 0.,
          0.153335392, 0.295556784, 0., 0., 0., 0., 0., 0.0392957553,
          0.0844772682, 0.105072163, 0.162877351, 0.0625467151,
          0.106278829, 0.188205793, 0.189792395, 0.15488641, 0.166157916,
          0.154614121, 0.219683677, 0., 0.181475505, 0.137186974,
          0.131127849 ]
      - [ 0.145461917, 0.178576395, 0.155988529, 0.188318536, 0.,
          0.0344350114, 0., 0.0398030169, 0.152795687, 0.122105062,
          0.190452859, 0.0746876895, 0., 0.118695825, 0.0968644395,
          0.129232243, 0.124801889, 0.332347959, 0., 0., 0., 0.,
          0.088657409, 0., 0., 0., 0.189894319, 0.11220552, 0.121808067,
          0.135100752, 0.0767486244, 0.125005439, 0.189729571,
          0.175096706, 0., 0., 0.176782429, 0.156634659, 0.15268442,
          0.126965687, 0.211886004, 0.143769175, 0.0377296992,
          0.117634833, 0., 0.107287288, 0.0727972165, 0., 0.,
          0.101785138, 0., 0., 0.216385663, 0.117495351, 0.162452385,
          0.0919588357, 0.0903107226, 0.242434219, 0.143297836,
          0.175632358, 0.202762708, 0.046061784, 0.00809116568, 0. ]
      - [ 0.12501654, 0.130455375, 0.195666015, 0.220426157, 0.164461836,
          0., 0., 0., 0., 0., 0.135144904, 0.208528683, 0., 0.0821640715,
          0.0725916624, 0.112325072, 0.157650232, 0.145754591,
          0.157227099, 0.0941119343, 0.157364115, 0.0882776901, 0., 0.,
          0.0871666744, 0.0294645559, 0.168068901, 0.158350527,
          0.200164869, 0.175542951, 0.113305137, 0.135833696,
          0.148705497, 0., 0.0903623998, 0.190517113, 0.0931609794,
          0.117493868, 0.172298357, 0.149928644, 0.208996713,
          0.030933626, 0., 0.0940653309, 0.115474701, 0.0671619251, 0.,
          0.101677939, 0., 0.075538151, 0.0422926359, 0.0878108218,
          0.174229234, 0.178044602, 0.138895571, 0.15156363, 0.,
          0.0515226945, 0.212768704, 0.196597472, 0.195772141,
          0.134682089, 0., 0.0734598562 ]
      - [ 0.118298419, 0.147503212, 0.169193596, 0.300980926, 0., 0., 0.,
          0., 0., 0., 0., 0.204746291, 0.192882776, 0.119331591,
          0.0617664233, 0.0881797299, 0.160894454, 0.132916316,
          0.274746031, 0., 0., 0., 0., 0., 0.0699269325, 0., 0.,
          0.210180938, 0.142571017, 0.139837071, 0.122846022,
          0.0544171855, 0., 0.119281657, 0., 0.194766566, 0.142047316,
          0.130095229, 0.189992055, 0.228253469, 0.147415221, 0., 0., 0.,
          0., 0.0694164187, 0.0770687386, 0.0475903526, 0.0858038738,
          0.201694638, 0.0861756876, 0., 0., 0., 0., 0.190652102,
          0.168623298, 0.25527218, 0.256370842, 0.103926055, 0.129240081,
          0.0940216333, 0.0779398754, 0.0909045115 ]
      - [ 0.238946736, 0.265165508, 0.12014138, 0.0928469673, 0., 0., 0.,
          0., 0.233707115, 0.0965221301, 0.078538321, 0., 0., 0., 0., 0.,
          0.135220766, 0.0075842673, 0., 0., 0., 0., 0.134922937,
          0.228052884, 0., 0., 0., 0., 0.0871667415, 0.125982895,
          0.245122358, 0.239762291, 0.0277630724, 0., 0., 0.,
          0.138366178, 0.182180598, 0.257688433, 0.141491979,
          0.193681702, 0.025767982, 0., 0., 0.095579043, 0.0890697539,
          0.168849647, 0.205360487, 0.249913797, 0.106604844,
          0.0932604596, 0., 0.0373640545, 0.141385436, 0.0682630911,
          0.0269024875, 0.27224052, 0.205186382, 0.149192899,
          0.191355973, 0., 0., 0., 0. ]
      - [ 0.131328866, 0.0901025385, 0.112088621, 0.133777261,
          0.136372119, 0., 0.0356488004, 0.0893100202, 0.0569946431,
          0.0937816203, 0., 0., 0.0629947335, 0.144968063, 0.225257933,
          0.131760418, 0., 0.0634340793, 0.111002274, 0.165911749,
          0.25482446, 0.141807273, 0.0386197232, 0., 0., 0.,
          0.0401621722, 0.162781, 0.273604631, 0.131460816, 0.0570582114,
          0.123209983, 0., 0., 0., 0., 0.0300352704, 0.309318513,
          0.172655568, 0.119319625, 0.0882196426, 0.0173419341,
          0.0454701521, 0.155750364, 0., 0.156701848, 0., 0.0479551889,
          0.100863487, 0.0117868558, 0.155850708, 0.222790644, 0.,
          0.0617509745, 0.202291667, 0.121762939, 0.13962175,
          0.116896838, 0.172978401, 0.280500144, 0., 0.173575848,
          0.132781342, 0.0830207616 ]
      - [ 0.149174526, 0.282964349, 0.210695341, 0., 0.0653910413, 0.,
          0., 0., 0.121137924, 0.175604165, 0.0705165043, 0., 0., 0., 0.,
          0., 0.237462565, 0.0622849055, 0., 0.113059893, 0.,
          0.0994095281, 0.0757633969, 0., 0., 0., 0., 0., 0.195941895,
          0.225983575, 0.146723121, 0.227760583, 0., 0., 0.190162078,
          0.208644047, 0.176020563, 0.190130308, 0.0677861422,
          0.186254546, 0.0552046783, 0.105111837, 0.187481955,
          0.115296796, 0.140270144, 0., 0., 0., 0.156871915, 0.,
          0.127385914, 0., 0., 0., 0.0314819589, 0., 0.428378314,
          0.115879916, 0.118581787, 0.105394378, 0., 0., 0.121361174, 0. ]
      - [ 0.164492935, 0.240023658, 0.180405065, 0.152780786,
          0.0976013914, 0., 0., 0., 0., 0.190693393, 0.0891691148,
          0.0581792295, 0., 0.106289841, 0.0873426571, 0.119459696,
          0.18621096, 0.0471076854, 0.0462005325, 0.154808387,
          0.0946975723, 0., 0.0889206082, 0.113351576, 0.234162569,
          0.0526607744, 0., 0.0919746608, 0.186681181, 0.161748037,
          0.18694663, 0.185795575, 0., 0., 0.0516915172, 0.130966634,
          0.0969641209, 0.132119328, 0.224539772, 0.246017069,
          0.0425478667, 0.0623153895, 0., 0.132127732, 0.0387944132,
          0.0796518773, 0.0923761874, 0.132405221, 0.166381136,
          0.151501656, 0.149301246, 0.0636032969, 0.0134627754,
          0.0532447137, 0.0872377977, 0.138130337, 0.138895184,
          0.233027816, 0.172426626, 0.199426845, 0.0309697222, 0., 0.,
          0.11972528 ]
      - [ 0.155467987, 0.0759897605, 0.239556015, 0.234225363, 0., 0.,
          0., 0., 0., 0., 0.0770472959, 0.253664613, 0.167934418,
          0.11983753, 0.0893900841, 0.0445310362, 0.341125876,
          0.0778594539, 0.0993213132, 0.0507282652, 0.0545737781, 0., 0.,
          0., 0., 0., 0., 0.0217441116, 0.0863388702, 0.0634295046,
          0.0171310548, 0.161270574, 0.0525122471, 0.143824905, 0.,
          0.153004959, 0.179578558, 0.207403511, 0.154396638,
          0.0540796146, 0.222964361, 0.158444241, 0., 0., 0.105991289,
          0.148978651, 0., 0.100686885, 0.0699442253, 0.146191508, 0.,
          0.0846952945, 0., 0., 0.14944987, 0.0857218504, 0.319294363,
          0.288107932, 0.126047224, 0., 0., 0., 0.0800561085,
          0.145780623 ]
      - [ 0.166825637, 0.159329653, 0.149213001, 0.206613898,
          0.165300548, 0.102642775, 0., 0., 0., 0.132112101,
          0.0787320882, 0.117318653, 0., 0.17526719, 0.164982125,
          0.00866167061, 0.118321516, 0.0912990123, 0.0850326419,
          0.125904292, 0.128074527, 0.0740797445, 0.115167171, 0., 0.,
          0., 0., 0., 0.146130979, 0.264197975, 0.213856861, 0.104119308,
          0., 0., 0., 0.131876782, 0.294409096, 0.140683323, 0.150140554,
          0.0596907176, 0.0609367564, 0.0915941, 0.107426494,
          0.317694753, 0., 0., 0., 0., 0., 0.10372936, 0., 0.0677544549,
          0., 0.0933390111, 0.266384214, 0.162176445, 0.119896598,
          0.149041533, 0.125702575, 0.181549102, 0.151547804, 0.,
          0.079671979, 0.0985460579 ]
      - [ 0.14659968, 0.211583897, 0.170764491, 0.177384257, 0.140717998,
          0.102170639, 0.107912898, 0., 0.13085407, 0.12840414,
          0.120371878, 0.0895361155, 0., 0., 0.0709825531, 0.195298016,
          0.145405188, 0., 0., 0.0931435078, 0., 0.0835147128, 0., 0.,
          0., 0., 0., 0., 0., 0.160132661, 0.325796515, 0.233750135, 0.,
          0.274977326, 0.116750397, 0.0596482307, 0.146628112,
          0.169507504, 0.0983385742, 0.164935827, 0.134662077,
          0.230282754, 0.162610158, 0., 0., 0.0579423867, 0., 0.,
          0.0292229988, 0., 0.0745788738, 0., 0.0172461271, 0.,
          0.070759438, 0.249060661, 0.267096758, 0.196567073,
          0.122025266, 0.0939979628, 0.135836616, 0.0412952602, 0.,
          0.0151716582 ]
      - [ 0.0854704827, 0.301344603, 0.137194365, 0.143730283, 0., 0.,
          0.0277304035, 0., 0.0588843189, 0.110292844, 0., 0., 0.,
          0.161902577, 0.119231462, 0., 0.15345864, 0.153008938, 0., 0.,
          0.0776297972, 0.151746213, 0.145158887, 0., 0.182261571,
          0.174659953, 0., 0., 0.151366115, 0.234190807, 0.119836129,
          0.237649977, 0., 0.0880240649, 0., 0.0887356848, 0.155650884,
          0.179081127, 0.0898508206, 0.146851271, 0.150016561,
          0.240704626, 0.162362978, 0., 0., 0.0946083143, 0.0444264263,
          0.0983775035, 0., 0.0157114733, 0.0647056922, 0.255324125,
          0.207293078, 0.0547715686, 0.072791338, 0.0854112357,
          0.076326631, 0.0967121497, 0.200418174, 0.264436841,
          0.117228113, 0., 0., 0. ]
      - [ 0.386548907, 0.172874004, 0.0464989059, 0., 0., 0., 0., 0., 0.,
          0., 0., 0., 0., 0., 0., 0.0277004987, 0.236932009,
          0.0710492358, 0., 0., 0., 0.0792181417, 0., 0., 0.0939850435,
          0., 0.0898279846, 0., 0., 0.211168259, 0.157901883,
          0.269474059, 0.090822652, 0.115538396, 0.107910894,
          0.0686270222, 0.0697196051, 0.252477765, 0.216557607,
          0.160083994, 0.325124681, 0.0220903177, 0., 0.0344238691, 0.,
          0., 0., 0., 0., 0.105962552, 0.106476255, 0., 0.124970138, 0.,
          0.166916594, 0.169249237, 0.230015457, 0.190717608,
          0.267015576, 0.175705612, 0.0719741285, 0.116103858, 0., 0. ]
      - [ 0.244570345, 0.101798363, 0.147381544, 0.263834327, 0., 0., 0.,
          0., 0., 0., 0., 0., 0.148991659, 0.178796709, 0.156828716,
          0.115944885, 0.286225706, 0.0131429564, 0., 0., 0., 0., 0., 0.,
          0., 0., 0., 0., 0., 0., 0.158043683, 0.372360021, 0., 0., 0.,
          0., 0.249317601, 0.165784106, 0.107393228, 0.140944809,
          0.117264882, 0.32080251, 0., 0.0609889179, 0., 0.,
          0.0734561682, 0.0561578609, 0., 0., 0., 0., 0., 0.,
          0.105812423, 0.346780956, 0.324803561, 0.0461787097, 0.,
          0.107235603, 0., 0., 0., 0. ]
      - [ 0., 0.27407369, 0.250013143, 0.124925956, 0., 0.105350688,
          0.10680455, 0., 0., 0.0920954272, 0.130748451, 0., 0., 0., 0.,
          0.170960486, 0.241388351, 0.0455239452, 0., 0., 0., 0., 0., 0.,
          0., 0., 0.105942346, 0.158204287, 0.160943076, 0.179204494,
          0.180493087, 0.218548074, 0.0849093795, 0., 0.122166499,
          0.229674846, 0.204444498, 0.0656961873, 0.117171012,
          0.0842952058, 0.286697328, 0.184667543, 0., 0.0823304355, 0.,
          0., 0.114230871, 0.0933022946, 0.147439107, 0., 0., 0., 0., 0.,
          0.00534403976, 0.0674230605, 0.430167913, 0.0241916981, 0.,
          0.0712515041, 0.0847760066, 0., 0.107311055, 0.110111602 ]
      - [ 0.113031529, 0.145302355, 0.208914623, 0.219392046, 0., 0.,
          0.0512331314, 0., 0., 0., 0.087247394, 0.177442685,
          0.0658900738, 0.091671586, 0.0851594955, 0.0921830311,
          0.15427272, 0.0849226192, 0.0741904303, 0.104682423,
          0.195631087, 0., 0.0817694589, 0.103811465, 0., 0., 0.,
          0.0929156616, 0.263469309, 0.181458652, 0.128890499,
          0.114486225, 0.0392692871, 0.0688857958, 0.0319479071,
          0.2373247, 0.148173809, 0.0967146456, 0.121347845,
          0.0910749584, 0.0848011449, 0.131275654, 0.288754791,
          0.0793235004, 0.0764246285, 0.0829766616, 0., 0., 0.0424650125,
          0., 0.0955248922, 0.144558579, 0.242039651, 0.173640251,
          0.160916924, 0., 0.134154275, 0.13845399, 0.180149511,
          0.205775499, 0.146387875, 0.141712934, 0.0966819823,
          0.0784194767 ]
      - [ 0.186253726, 0.108355515, 0.183649421, 0.110686064,
          0.0458913743, 0.156687737, 0., 0., 0., 0., 0., 0., 0.,
          0.201816872, 0.149208769, 0.111807391, 0.0461555272,
          0.0880790651, 0.0580479316, 0.126067519, 0.201608539,
          0.0498434864, 0., 0., 0., 0.0149514293, 0., 0., 0.228393137,
          0.111464433, 0.25704667, 0.047224991, 0., 0.154880896,
          0.108654574, 0., 0., 0.18781957, 0.269546807, 0.166096598,
          0.130449727, 0.145641759, 0.166744485, 0., 0., 0., 0.164450049,
          0.0515642054, 0.148180887, 0.103654832, 0.11519447, 0., 0.,
          0.0673482567, 0.242474422, 0.218556359, 0.144834355,
          0.190293714, 0.153608873, 0.185751691, 0., 0., 0.240584701,
          0.0525069125 ]
      - [ 0.112087041, 0.100262254, 0.241690457, 0.202077568, 0., 0., 0.,
          0., 0., 0., 0.0302457865, 0.202163294, 0.116607875,
          0.0991105363, 0.0702308416, 0.0605206378, 0.164388165,
          0.138256788, 0.142352805, 0.206134081, 0.0635562316, 0., 0.,
          0., 0., 0.0821406096, 0.286240041, 0.0593526363, 0.123131767,
          0.133217812, 0.0671930835, 0.171518788, 0.169223994,
          0.0939156339, 0.101497352, 0.141703218, 0.0713410601,
          0.140761241, 0.149368599, 0.258189201, 0.181760162,
          0.0360783823, 0., 0., 0.0936933681, 0., 0.10475345,
          0.128340289, 0., 0., 0.068731077, 0., 0.0105133774,
          0.216061875, 0.243771121, 0.0491616502, 0.0911859572,
          0.11756403, 0.13658911, 0.160904571, 0.118986182, 0.178335577,
          0.22600399, 0.0547631308 ]
      - [ 0.274238527, 0.122254573, 0.113407992, 0.139587566, 0., 0., 0.,
          0., 0., 0., 0., 0., 0., 0., 0.00480652507, 0.306572556,
          0.352021128, 0.0304578841, 0., 0., 0., 0., 0., 0., 0., 0., 0.,
          0., 0., 0.137546137, 0.211956203, 0.24420467, 0., 0.0433310717,
          0., 0., 0.139926314, 0.200099587, 0.234472573, 0.150046781,
          0.322969943, 0.0306768734, 0., 0., 0., 0., 0.0611309893,
          0.0444710702, 0., 0.0422780924, 0., 0., 0., 0., 0.0214233398,
          0.320661545, 0.297927976, 0.19454053, 0.123898737, 0.170841515,
          0.082245931, 0., 0.0262086261, 0.0392970107 ]
      - [ 0.226001993, 0.187489554, 0.216833055, 0.164847717, 0.,
          0.10162998, 0.0739397779, 0., 0.102888301, 0., 0.163380638, 0.,
          0., 0., 0., 0.159279272, 0.302362859, 0.0687758699, 0., 0., 0.,
          0., 0., 0., 0., 0., 0., 0., 0.208622158, 0.177344993,
          0.147391751, 0.195181862, 0.0991879851, 0., 0.199492514,
          0.172192737, 0.122028559, 0.146348998, 0.147505686,
          0.236174464, 0.233847499, 0.00723970542, 0., 0.114042148,
          0.0774194375, 0.0870094448, 0., 0., 0.128961027, 0., 0., 0.,
          0., 0., 0., 0.0669708401, 0.419361889, 0.19052963, 0., 0., 0.,
          0.145561561, 0., 0.0357485861 ]
      - [ 0.1883654, 0.224461406, 0.211172789, 0.0923386738, 0., 0., 0.,
          0., 0.12826328, 0.246236384, 0., 0., 0., 0., 0., 0.0208276641,
          0.14973028, 0.0470521934, 0.0946471468, 0.103754103,
          0.139623791, 0.042805858, 0.112272955, 0.0994330198,
          0.153113529, 0., 0., 0., 0.162629366, 0.222656056, 0.167285055,
          0.20296587, 0., 0.258784503, 0.0833556727, 0.116845727,
          0.145733699, 0.112183683, 0.114710778, 0.050848458,
          0.173108608, 0.242179722, 0.0843781009, 0., 0., 0., 0.,
          0.0430086963, 0.167585209, 0.100225128, 0.0852748677, 0.,
          0.139458388, 0.163784832, 0.0544541702, 0.128270447,
          0.233614713, 0.170865029, 0.24098672, 0.0697247684, 0.,
          0.153472304, 0.0922613814, 0.0456345826 ]
      - [ 0.27801469, 0.135544389, 0.114267632, 0.0721790791,
          0.0812739879, 0.048560001, 0.116713315, 0.211115614,
          0.191894755, 0., 0., 0., 0.0204264503, 0., 0.00427341694, 0.,
          0.205622107, 0.170886874, 0.0794642419, 0.109982751, 0.,
          0.141488135, 0., 0., 0., 0., 0., 0.190477818, 0.0968782008,
          0.2522223, 0.169116855, 0.13863261, 0.250538677, 0.165698424,
          0.0657166615, 0.0512356237, 0.124300845, 0.167424813,
          0.176688269, 0.127486482, 0.224243566, 0., 0., 0., 0., 0., 0.,
          0.135140523, 0., 0., 0.149877399, 0., 0.0444723964,
          0.109260283, 0.116893776, 0.12930885, 0.177575186, 0.219268098,
          0.224553496, 0.223165229, 0.0720183253, 0.0673636645, 0.,
          0.040512383 ]
      - [ 0.0708373487, 0.108234547, 0.299515247, 0.111401238, 0., 0.,
          0., 0.131975532, 0.0342507586, 0.102151416, 0.108511604,
          0.171445087, 0., 0.0823294297, 0.137686238, 0.132209107,
          0.0713709965, 0.100665025, 0.0770174265, 0., 0.119674534,
          0.198985279, 0.105852708, 0., 0., 0., 0.0379458368, 0., 0.,
          0.301353782, 0.211851656, 0., 0., 0.0258921646, 0.193735495,
          0.219343945, 0.138580039, 0.097750552, 0.0585699864,
          0.138310835, 0.0303268563, 0.0698141977, 0.277683377,
          0.213411286, 0., 0., 0., 0., 0.0728755891, 0.0837612078,
          0.0784155726, 0.0967801213, 0.138339087, 0.228642613,
